svm_type epsilon_svr
kernel_type linear
nr_class 2
total_sv 81
rho -12.9502
SV
1 6:-1 34:-1 39:-1 46:-1 49:-1 51:-1 52:-1 76:-1 78:-1 94:-1 104:-1 117:-1 121:-1 130:-1 139:-1 141:-1 143:-1 146:-1 156:-1 160:-1 164:-1 169:-1 170:-1 177:-1 178:-1 179:-1 188:-1 191:-1 195:-1 201:-1 203:-1 216:-1 218:-1 219:-1 228:-1 229:-1 230:-1 233:-1 243:-1 249:-1 252:-1 257:-1 261:-1 263:-1 275:-1 277:-1 298:-1 306:-1 309:-1 318:-1 320:-1 324:-1 339:-1 357:-1 359:-1 360:-1 361:-1 364:-1 365:-1 366:-1 373:-1 386:-1 387:-1 388:-1 389:-1 390:-1 392:-1 395:-1 399:-1 400:-1 407:-1 413:-1 418:-1 422:-1 423:-1 447:-1 449:-1 461:-1 462:-1 465:-1 472:-1 476:-1 477:-1 483:-1 496:-1 497:-1 501:-1 503:-1 513:-1 529:-1 531:-1 538:-1 539:-1 550:-1 608:-1 626:-1 642:-1 654:-1 662:-1 674:-1 678:-1 680:-1 732:-1 735:-1 762:-1 763:-1 768:-1 793:-1 797:-1 807:-1 810:-1 822:-1 830:-1 836:-1 839:-1 840:-1 841:-1 842:-1 843:-1 853:-1 860:-1 861:-1 867:-1 869:-1 919:-1 920:-1 946:-1 973:-1 974:-1 985:-1 986:-1 987:-1 990:-1 992:-1 993:-1 1005:-1 1009:-1 1010:-1 1015:-1 1016:-1 1017:-1 1018:-1 1019:-1 1020:-1 1021:-1 1022:-1 1026:-1 1028:-1 1033:-1 1034:-1 1050:-1 1062:-1 1072:-1 1085:-1 1105:-1 1107:-1 1112:-1 1113:-1 1117:-1 1191:-1 1215:-1 1222:-1 1238:-1 1239:-1 1241:-1 1264:-1 1281:-1 1290:-1 1321:-1 1322:-1 1323:-1 1341:-1 1343:-1 1352:-1 1356:-1 1357:-1 1362:-1 1364:-1 1378:-1 1382:-1 1383:-1 1384:-1 1385:-1 1386:-1 1387:-1 1388:-1 1402:-1 1461:-1 1481:-1 1482:-1 1492:-1 1495:-1 1496:-1 1514:-1 1520:-1 1541:-1 1580:-1 1594:-1 1595:-1 1596:-1 1598:-1 1622:-1 1635:-1 1644:-1 1652:-1 1655:-1 1663:-1 1671:-1 1674:-1 1676:-1 1695:-1 1700:-1 1701:-1 1707:-1 1709:-1 1738:-1 1739:-1 1742:-1 1750:-1 1755:-1 1763:-1 1781:-1 1785:-1 1786:-1 1787:-1 1805:-1 1830:-1 1832:-1 1833:-1 1836:-1 1873:-1 1875:-1 1885:-1 1908:-1 1917:-1 1921:-1 1922:-1 1923:-1 1924:-1 1927:-1 1928:-1 1929:-1 1930:-1 1932:-1 1940:-1 1941:-1 1942:-1 1952:-1 1959:-1 1960:-1 1982:-1 1985:-1 1992:-1 1993:-1 1996:-1 2003:-1 2005:-1 2006:-1 2007:-1 2012:-1 2019:-1 2020:-1 2022:-1 2023:-1 2025:-1 2032:-1 2050:-1 2051:-1 2065:-1 2066:-1 2098:-1 2104:-1 2114:-1 2116:-1 2148:-1 2149:-1 2173:-1 2270:-1 2286:-1 2293:-1 2294:-1 2295:-1 2296:-1 2299:-1 2307:-1 2311:-1 2313:-1 2318:-1 2324:-1 2325:-1 2330:-1 2340:-1 2341:-1 2342:-1 2351:-1 2356:-1 2357:-1 2368:-1 2370:-1 2379:-1 2380:-1 2383:-1 2384:-1 2385:-1 2388:-1 2390:-1 2391:-1 2427:-1 2436:-1 2437:-1 2438:-1 2439:-1 2440:-1 2471:-1 2474:-1 2479:-1 2481:-1 2482:-1 2488:-1 2493:-1 2496:-1 2499:-1 2500:-1 2501:-1 2502:-1 2503:-1 2504:-1 2508:-1 2509:-1 2510:-1 2516:-1 2518:-1 2521:-1 2523:-1 2527:-1 2528:-1 2530:-1 2531:-1 2538:-1 2540:-1 2547:-1 2549:-1 2550:-1 2558:-1 2559:-1 2562:-1 2563:-1 2566:-1 2569:-1 2571:-1 2575:-1 2578:-1 2580:-1 2593:-1 2609:-1 2617:-1 2621:-1 2634:-1 2635:-1 2636:-1 2642:-1 2643:-1 2650:-1 2651:-1 2655:-1 2657:-1 2659:-1 2660:-1 2674:-1 2679:-1 2680:-1 2681:-1 2682:-1 2686:-1 2699:-1 2700:-1 2701:-1 2702:-1 2703:-1 2713:-1 2717:-1 2719:-1 2720:-1 2731:-1 2735:-1 2738:-1 2748:-1 2753:-1 2755:-1 2779:-1 2780:-1 2781:-1 2782:-1 2784:-1 2787:-1 2790:-1 2791:-1 2799:-1 2800:-1 2806:-1 2816:-1 2818:-1 2824:-1 2850:-1 2851:-1 2855:-1 2856:-1 2858:-1 2862:-1 2864:-1 2869:-1 2876:-1 2877:-1 2880:-1 2882:-1 2888:-1 2902:-1 2916:-1 2928:-1 
1 6:-1 34:-1 39:-1 46:-1 49:-1 51:-1 52:-1 76:-1 78:-1 94:-1 104:-1 117:-1 121:-1 130:-1 139:-1 141:-1 143:-1 146:-1 156:-1 160:-1 164:-1 169:-1 170:-1 177:-1 178:-1 179:-1 188:-1 191:-1 195:-1 201:-1 203:-1 216:-1 218:-1 219:-1 228:-1 229:-1 230:-1 233:-1 243:-1 249:-1 252:-1 257:-1 261:-1 263:-1 275:-1 277:-1 298:-1 306:-1 309:-1 318:-1 320:-1 324:-1 339:-1 357:-1 359:-1 360:-1 361:-1 364:-1 365:-1 366:-1 373:-1 386:-1 387:-1 388:-1 389:-1 390:-1 392:-1 395:-1 399:-1 400:-1 407:-1 413:-1 418:-1 422:-1 423:-1 447:-1 449:-1 461:-1 462:-1 465:-1 472:-1 476:-1 477:-1 483:-1 496:-1 497:-1 501:-1 503:-1 513:-1 529:-1 531:-1 538:-1 539:-1 550:-1 608:-1 626:-1 642:-1 654:-1 662:-1 674:-1 678:-1 680:-1 732:-1 735:-1 762:-1 763:-1 768:-1 793:-1 797:-1 807:-1 810:-1 822:-1 830:-1 836:-1 839:-1 840:-1 841:-1 842:-1 843:-1 853:-1 860:-1 861:-1 867:-1 869:-1 919:-1 920:-1 946:-1 973:-1 974:-1 985:-1 986:-1 987:-1 990:-1 992:-1 993:-1 1005:-1 1009:-1 1010:-1 1015:-1 1016:-1 1017:-1 1018:-1 1019:-1 1020:-1 1021:-1 1022:-1 1026:-1 1028:-1 1033:-1 1034:-1 1050:-1 1062:-1 1072:-1 1085:-1 1105:-1 1107:-1 1112:-1 1113:-1 1117:-1 1191:-1 1215:-1 1222:-1 1238:-1 1239:-1 1241:-1 1264:-1 1281:-1 1290:-1 1321:-1 1322:-1 1323:-1 1341:-1 1343:-1 1352:-1 1356:-1 1357:-1 1362:-1 1364:-1 1378:-1 1382:-1 1383:-1 1384:-1 1385:-1 1386:-1 1387:-1 1388:-1 1402:-1 1461:-1 1481:-1 1482:-1 1492:-1 1495:-1 1496:-1 1514:-1 1520:-1 1541:-1 1580:-1 1594:-1 1595:-1 1596:-1 1598:-1 1622:-1 1635:-1 1644:-1 1652:-1 1655:-1 1663:-1 1671:-1 1674:-1 1676:-1 1695:-1 1700:-1 1701:-1 1707:-1 1709:-1 1738:-1 1739:-1 1742:-1 1750:-1 1755:-1 1763:-1 1781:-1 1785:-1 1786:-1 1787:-1 1805:-1 1830:-1 1832:-1 1833:-1 1836:-1 1873:-1 1875:-1 1885:-1 1908:-1 1917:-1 1921:-1 1922:-1 1923:-1 1924:-1 1927:-1 1928:-1 1929:-1 1930:-1 1932:-1 1940:-1 1941:-1 1942:-1 1952:-1 1959:-1 1960:-1 1982:-1 1985:-1 1992:-1 1993:-1 1996:-1 2003:-1 2005:-1 2006:-1 2007:-1 2012:-1 2019:-1 2020:-1 2022:-1 2023:-1 2025:-1 2032:-1 2050:-1 2051:-1 2065:-1 2066:-1 2098:-1 2104:-1 2114:-1 2116:-1 2148:-1 2149:-1 2173:-1 2270:-1 2286:-1 2293:-1 2294:-1 2295:-1 2296:-1 2299:-1 2307:-1 2311:-1 2313:-1 2318:-1 2324:-1 2325:-1 2330:-1 2340:-1 2341:-1 2342:-1 2351:-1 2356:-1 2357:-1 2368:-1 2370:-1 2379:-1 2380:-1 2383:-1 2384:-1 2385:-1 2388:-1 2390:-1 2391:-1 2427:-1 2436:-1 2437:-1 2438:-1 2439:-1 2440:-1 2471:-1 2474:-1 2479:-1 2481:-1 2482:-1 2488:-1 2493:-1 2496:-1 2499:-1 2500:-1 2501:-1 2502:-1 2503:-1 2504:-1 2508:-1 2509:-1 2510:-1 2516:-1 2518:-1 2521:-1 2523:-1 2527:-1 2528:-1 2530:-1 2531:-1 2538:-1 2540:-1 2547:-1 2549:-1 2550:-1 2558:-1 2559:-1 2562:-1 2563:-1 2566:-1 2569:-1 2571:-1 2575:-1 2578:-1 2580:-1 2593:-1 2609:-1 2617:-1 2621:-1 2634:-1 2635:-1 2636:-1 2642:-1 2643:-1 2650:-1 2651:-1 2655:-1 2657:-1 2659:-1 2660:-1 2674:-1 2679:-1 2680:-1 2681:-1 2682:-1 2686:-1 2699:-1 2700:-1 2701:-1 2702:-1 2703:-1 2713:-1 2717:-1 2719:-1 2720:-1 2731:-1 2735:-1 2738:-1 2748:-1 2753:-1 2755:-1 2779:-1 2780:-1 2781:-1 2782:-1 2784:-1 2787:-1 2790:-1 2791:-1 2799:-1 2800:-1 2806:-1 2816:-1 2818:-1 2824:-1 2850:-1 2851:-1 2855:-1 2856:-1 2858:-1 2862:-1 2864:-1 2869:-1 2876:-1 2877:-1 2880:-1 2882:-1 2888:-1 2902:-1 2916:-1 2928:-1 
1 6:-1 34:-1 39:-1 46:-1 49:-1 51:-1 52:-1 76:-1 78:-1 94:-1 104:-1 117:-1 121:-1 130:-1 139:-1 141:-1 143:-1 146:-1 156:-1 160:-1 164:-1 169:-1 170:-1 177:-1 178:-1 179:-1 188:-1 191:-1 195:-1 201:-1 203:-1 216:-1 218:-1 219:-1 228:-1 229:-1 230:-1 233:-1 243:-1 249:-1 252:-1 257:-1 261:-1 263:-1 275:-1 277:-1 298:-1 306:-1 309:-1 318:-1 320:-1 324:-1 339:-1 357:-1 359:-1 360:-1 361:-1 364:-1 365:-1 366:-1 373:-1 386:-1 387:-1 388:-1 389:-1 390:-1 392:-1 395:-1 399:-1 400:-1 407:-1 413:-1 418:-1 422:-1 423:-1 447:-1 449:-1 461:-1 462:-1 465:-1 472:-1 476:-1 477:-1 483:-1 496:-1 497:-1 501:-1 503:-1 513:-1 529:-1 531:-1 538:-1 539:-1 550:-1 608:-1 626:-1 642:-1 654:-1 662:-1 674:-1 678:-1 680:-1 732:-1 735:-1 762:-1 763:-1 768:-1 793:-1 797:-1 807:-1 810:-1 822:-1 830:-1 836:-1 839:-1 840:-1 841:-1 842:-1 843:-1 853:-1 860:-1 861:-1 867:-1 869:-1 919:-1 920:-1 946:-1 973:-1 974:-1 985:-1 986:-1 987:-1 990:-1 992:-1 993:-1 1005:-1 1009:-1 1010:-1 1015:-1 1016:-1 1017:-1 1018:-1 1019:-1 1020:-1 1021:-1 1022:-1 1026:-1 1028:-1 1033:-1 1034:-1 1050:-1 1062:-1 1072:-1 1085:-1 1105:-1 1107:-1 1112:-1 1113:-1 1117:-1 1191:-1 1215:-1 1222:-1 1238:-1 1239:-1 1241:-1 1264:-1 1281:-1 1290:-1 1321:-1 1322:-1 1323:-1 1341:-1 1343:-1 1352:-1 1356:-1 1357:-1 1362:-1 1364:-1 1378:-1 1382:-1 1383:-1 1384:-1 1385:-1 1386:-1 1387:-1 1388:-1 1402:-1 1461:-1 1481:-1 1482:-1 1492:-1 1495:-1 1496:-1 1514:-1 1520:-1 1541:-1 1580:-1 1594:-1 1595:-1 1596:-1 1598:-1 1622:-1 1635:-1 1644:-1 1652:-1 1655:-1 1663:-1 1671:-1 1674:-1 1676:-1 1695:-1 1700:-1 1701:-1 1707:-1 1709:-1 1738:-1 1739:-1 1742:-1 1750:-1 1755:-1 1763:-1 1781:-1 1785:-1 1786:-1 1787:-1 1805:-1 1830:-1 1832:-1 1833:-1 1836:-1 1873:-1 1875:-1 1885:-1 1908:-1 1917:-1 1921:-1 1922:-1 1923:-1 1924:-1 1927:-1 1928:-1 1929:-1 1930:-1 1932:-1 1940:-1 1941:-1 1942:-1 1952:-1 1959:-1 1960:-1 1982:-1 1985:-1 1992:-1 1993:-1 1996:-1 2003:-1 2005:-1 2006:-1 2007:-1 2012:-1 2019:-1 2020:-1 2022:-1 2023:-1 2025:-1 2032:-1 2050:-1 2051:-1 2065:-1 2066:-1 2098:-1 2104:-1 2114:-1 2116:-1 2148:-1 2149:-1 2173:-1 2270:-1 2286:-1 2293:-1 2294:-1 2295:-1 2296:-1 2299:-1 2307:-1 2311:-1 2313:-1 2318:-1 2324:-1 2325:-1 2330:-1 2340:-1 2341:-1 2342:-1 2351:-1 2356:-1 2357:-1 2368:-1 2370:-1 2379:-1 2380:-1 2383:-1 2384:-1 2385:-1 2388:-1 2390:-1 2391:-1 2427:-1 2436:-1 2437:-1 2438:-1 2439:-1 2440:-1 2471:-1 2474:-1 2479:-1 2481:-1 2482:-1 2488:-1 2493:-1 2496:-1 2499:-1 2500:-1 2501:-1 2502:-1 2503:-1 2504:-1 2508:-1 2509:-1 2510:-1 2516:-1 2518:-1 2521:-1 2523:-1 2527:-1 2528:-1 2530:-1 2531:-1 2538:-1 2540:-1 2547:-1 2549:-1 2550:-1 2558:-1 2559:-1 2562:-1 2563:-1 2566:-1 2569:-1 2571:-1 2575:-1 2578:-1 2580:-1 2593:-1 2609:-1 2617:-1 2621:-1 2634:-1 2635:-1 2636:-1 2642:-1 2643:-1 2650:-1 2651:-1 2655:-1 2657:-1 2659:-1 2660:-1 2674:-1 2679:-1 2680:-1 2681:-1 2682:-1 2686:-1 2699:-1 2700:-1 2701:-1 2702:-1 2703:-1 2713:-1 2717:-1 2719:-1 2720:-1 2731:-1 2735:-1 2738:-1 2748:-1 2753:-1 2755:-1 2779:-1 2780:-1 2781:-1 2782:-1 2784:-1 2787:-1 2790:-1 2791:-1 2799:-1 2800:-1 2806:-1 2816:-1 2818:-1 2824:-1 2850:-1 2851:-1 2855:-1 2856:-1 2858:-1 2862:-1 2864:-1 2869:-1 2876:-1 2877:-1 2880:-1 2882:-1 2888:-1 2902:-1 2916:-1 2928:-1 
0.006991154383557697 6:-1 34:-1 39:-1 46:-1 49:-1 51:-1 52:-1 76:-1 78:-0.333333 94:-1 104:-1 117:-1 121:-1 130:-1 141:-1 143:-1 146:-1 156:-1 160:-1 164:-1 169:-1 170:-1 177:-1 178:-1 179:-1 188:1 191:-1 195:-1 201:-1 203:-1 216:-1 218:-1 219:-1 228:-1 229:-1 230:-1 233:-1 243:-1 249:-1 252:-1 257:-1 261:-1 263:-1 275:-1 277:-1 298:-1 306:-1 309:-1 318:-1 320:-1 324:-1 339:-1 357:-1 359:-1 360:-1 361:-1 364:-1 365:-1 366:-1 373:-1 386:-1 387:-1 388:-1 389:-1 390:-1 392:-1 395:-1 399:-1 400:-1 407:-1 413:-1 418:-1 422:-1 423:-1 447:-1 449:1 461:-1 462:-1 465:-1 472:-1 476:-1 477:-1 483:-1 496:-1 497:-1 501:-1 503:-1 513:-1 529:-1 531:-1 538:-1 539:-1 550:-1 608:-1 626:-1 642:-1 654:-1 662:-1 674:-1 678:-1 680:-1 732:-1 735:-1 762:-1 763:-1 768:-1 793:-1 797:-1 807:-1 810:-1 822:-1 830:-1 836:-1 839:-1 840:1 841:-1 842:-1 843:-1 853:-1 860:-1 861:-1 867:-1 869:-1 919:-1 920:-1 946:-1 973:-1 974:-1 985:-1 986:-1 987:-1 990:-1 992:-1 993:-1 1005:-1 1009:-1 1010:-1 1015:-1 1016:-1 1017:-1 1018:-1 1019:-1 1020:-1 1021:-1 1022:-1 1026:-1 1028:-1 1033:-1 1034:-1 1050:-1 1062:-1 1072:-1 1085:-1 1105:1 1107:-1 1112:-1 1113:-1 1117:-1 1191:-1 1215:-1 1222:-1 1238:-1 1239:-1 1241:-1 1264:-1 1281:-1 1290:-1 1321:-1 1322:-1 1323:-1 1341:-1 1343:-1 1352:-1 1356:-1 1357:-1 1362:-1 1364:-1 1378:-1 1382:-1 1383:-1 1384:-1 1385:-1 1386:-1 1387:-1 1388:-1 1402:-1 1461:-1 1481:-1 1482:-1 1492:-1 1495:-1 1496:-1 1514:-1 1520:-1 1541:-1 1580:-1 1594:-1 1595:-1 1596:-1 1598:-1 1622:-1 1635:-1 1644:-1 1652:-1 1655:-1 1663:-1 1671:-1 1674:-1 1676:-1 1695:-1 1700:-1 1701:-1 1707:-1 1709:-1 1738:-1 1739:-1 1742:-1 1750:-1 1755:-1 1763:-1 1781:-1 1785:-1 1786:-1 1787:-1 1805:-1 1830:-1 1832:-1 1833:-1 1836:-1 1873:-1 1875:-1 1885:-1 1908:-1 1917:-1 1921:-1 1922:-1 1923:-1 1924:-1 1927:-1 1928:-1 1929:-1 1930:-1 1932:-1 1940:-1 1941:-1 1942:-1 1952:-1 1959:-1 1960:-1 1982:-1 1985:-1 1992:-1 1993:-1 1996:-1 2003:-1 2005:-1 2006:-1 2007:-1 2012:-1 2019:-1 2020:-1 2022:-1 2023:-1 2025:-1 2032:-1 2050:-1 2051:-1 2065:-1 2066:-1 2098:-1 2104:-1 2114:-1 2116:-1 2148:-1 2149:-1 2173:-1 2270:-1 2286:-1 2293:-1 2294:-1 2295:-1 2296:-1 2299:-1 2307:-1 2311:-1 2313:-1 2318:-1 2324:-1 2325:-1 2330:-1 2340:-1 2341:-1 2342:-1 2351:-1 2356:-1 2357:-1 2368:-1 2370:-1 2379:-1 2380:-1 2383:-1 2384:-1 2385:-1 2388:-1 2390:-1 2391:-1 2427:-1 2436:-1 2437:-1 2438:-1 2439:-1 2440:-1 2471:-1 2474:-1 2479:-1 2481:-1 2482:-1 2488:-1 2493:-1 2496:-1 2499:-1 2500:-1 2501:-1 2502:-1 2503:-1 2504:-1 2508:-1 2509:-1 2510:-1 2516:-1 2518:-1 2521:-1 2523:-1 2527:-1 2528:-1 2530:-1 2531:-1 2538:-1 2540:-1 2547:-1 2549:-1 2550:-1 2558:-1 2559:-1 2562:-1 2563:-1 2566:-1 2569:-1 2571:-1 2575:-1 2578:-1 2580:-1 2593:-1 2609:-1 2617:-1 2621:-1 2634:-1 2635:-1 2636:-1 2642:-1 2643:-1 2650:-1 2651:-1 2655:-1 2657:-1 2659:-1 2660:-1 2674:-1 2679:1 2680:-1 2681:-1 2682:-1 2686:-1 2699:-1 2700:-1 2701:-1 2702:-1 2703:-1 2713:-1 2717:-1 2719:-1 2720:-1 2731:-1 2735:-1 2738:-1 2748:-1 2753:-1 2755:-1 2779:-1 2780:-1 2781:-1 2782:-1 2784:-1 2787:-1 2790:-1 2791:-1 2799:-1 2800:-1 2806:-1 2816:-1 2818:-1 2824:-1 2850:-1 2851:-1 2855:-1 2856:-1 2858:-1 2862:-1 2864:-1 2869:-1 2876:-1 2877:-1 2880:-1 2882:-1 2888:-1 2902:-1 2916:-1 2928:-1 
-0.004877474609992599 6:-1 34:-1 39:-1 46:-1 49:-1 51:1 52:-1 76:-1 78:-1 94:-1 104:-1 117:-1 121:-1 130:-1 139:-1 141:-1 143:-1 146:-1 156:-1 160:-1 164:-1 169:-1 170:-1 177:-1 178:-1 179:-1 188:-1 191:-1 195:-1 201:-1 203:-1 216:-1 218:-1 219:-1 228:-1 229:-1 230:-1 233:-1 243:-1 249:-1 252:-1 257:-1 261:-1 263:-1 275:-1 277:-1 298:-1 306:-1 309:-1 318:-1 320:-1 324:-1 339:-1 357:-1 359:-1 360:-1 361:-1 364:-1 365:-1 366:-1 373:-1 386:-1 387:-1 388:-1 389:-1 390:-1 392:-1 395:-1 399:-1 400:-1 407:-1 413:-1 418:-1 422:-1 423:-1 447:-1 449:-1 461:-1 462:-1 465:-1 472:-1 476:-1 477:-1 483:-1 496:-1 497:-1 501:-1 503:-1 513:-1 529:-1 531:-1 538:-1 539:-1 550:-1 608:-1 626:-1 642:-1 654:-1 662:-1 674:-1 678:-1 680:-1 732:-1 735:-1 762:-1 763:-1 768:-1 793:-1 797:-1 807:-1 810:-1 822:-1 830:-1 836:-1 839:-1 840:-1 841:-1 842:-1 843:-1 853:-1 860:-1 861:-1 867:-1 869:-1 919:-1 920:-1 946:-1 973:-1 974:-1 985:-1 986:-1 987:-1 990:-1 992:-1 993:-1 1005:-1 1009:-1 1010:-1 1015:-1 1016:-1 1017:-1 1018:-1 1019:-1 1020:-1 1021:-1 1022:-1 1026:-1 1028:-1 1033:-1 1034:-1 1050:-1 1062:-1 1072:-1 1085:-1 1105:-1 1107:-1 1112:-1 1113:-1 1117:-1 1191:-1 1215:-1 1222:-1 1238:-1 1239:-1 1241:-1 1264:-1 1281:-1 1290:-1 1321:-1 1322:-1 1323:-1 1341:-1 1343:-1 1352:-1 1356:-1 1357:-1 1362:-1 1364:-1 1378:-1 1382:-1 1383:-1 1384:-1 1385:-1 1386:-1 1387:-1 1388:-1 1402:-1 1461:-1 1481:-1 1482:-1 1492:-1 1495:-1 1496:-1 1514:-1 1520:-1 1541:-1 1580:-1 1594:-1 1595:-1 1596:-1 1598:-1 1622:-1 1635:-1 1644:-1 1652:-1 1655:-1 1663:-1 1671:-1 1674:-1 1676:-1 1695:-1 1700:-1 1701:-1 1707:-1 1709:-1 1738:-1 1739:-1 1742:-1 1750:-1 1755:-1 1763:-1 1781:-1 1785:-1 1786:-1 1787:-1 1805:-1 1830:-1 1832:-1 1833:-1 1836:-1 1873:-1 1875:-1 1885:-1 1908:-1 1917:-1 1921:-1 1922:-1 1923:-1 1924:-1 1927:-1 1928:-1 1929:-1 1930:-1 1932:-1 1940:-1 1941:-1 1942:-1 1952:-1 1959:-1 1960:-1 1982:-1 1985:-1 1992:-1 1993:-1 1996:-1 2003:-1 2005:-1 2006:-1 2007:-1 2012:-1 2019:-1 2020:-1 2022:-1 2023:-1 2025:-1 2032:-1 2050:-1 2051:-1 2065:-1 2066:-1 2098:-1 2104:-1 2114:-1 2116:-1 2148:-1 2149:-1 2173:-1 2270:-1 2286:-1 2293:-1 2294:-1 2295:-1 2296:-1 2299:-1 2307:-1 2311:-1 2313:-1 2318:-1 2324:-1 2325:-1 2330:-1 2340:-1 2341:-1 2342:-1 2351:-1 2356:-1 2357:-1 2368:-1 2370:-1 2379:-1 2380:-1 2383:-1 2384:-1 2385:-1 2388:-1 2390:-1 2391:-1 2427:-1 2436:-1 2437:-1 2438:-1 2439:-1 2440:-1 2471:-1 2474:-1 2479:-1 2481:-1 2482:-1 2488:-1 2493:-1 2496:-1 2499:-1 2500:-1 2501:-1 2502:-1 2503:-1 2504:-1 2508:-1 2509:-1 2510:-1 2516:-1 2518:-1 2521:-1 2523:-1 2527:-1 2528:-1 2530:-1 2531:-1 2538:-1 2540:-1 2547:-1 2549:-1 2550:-1 2558:-1 2559:-1 2562:-1 2563:-1 2566:-1 2569:-1 2571:-1 2575:-1 2578:-1 2580:-1 2593:-1 2609:-1 2617:-1 2621:-1 2634:-1 2635:-1 2636:-1 2642:-1 2643:-1 2650:-1 2651:-1 2655:-1 2657:-1 2659:-1 2660:-1 2674:-1 2679:-1 2680:-1 2681:-1 2682:-1 2686:-1 2699:-1 2700:-1 2701:-1 2702:-1 2703:-1 2713:-1 2717:-1 2719:-1 2720:-1 2731:-1 2735:-1 2738:-1 2748:-1 2753:-1 2755:-1 2779:-1 2780:-1 2781:-1 2782:-1 2784:-1 2787:-1 2790:-1 2791:-1 2799:-1 2800:-1 2806:-1 2816:-1 2818:-1 2824:-1 2850:-1 2851:-1 2855:-1 2856:-1 2858:-1 2862:-1 2864:-1 2869:-1 2876:-1 2877:-1 2880:-1 2882:-1 2888:-1 2902:-1 2916:-1 2928:-1 
0.009374661176902225 6:-1 34:-1 39:-1 46:-1 49:-1 51:-1 52:-1 76:-1 78:-1 94:-1 104:-1 117:1 121:-1 130:-1 139:-1 141:-1 143:-1 146:-1 156:-1 160:-1 164:-1 169:-1 170:-1 177:-1 178:-1 179:-1 188:-1 191:-1 195:-1 201:-1 203:-1 216:-1 218:-1 219:-1 228:-1 229:-1 230:-1 233:-1 243:-1 249:-1 252:-1 257:-1 261:-1 263:-1 275:-1 277:-1 298:-1 306:-1 309:-1 318:-1 320:-1 324:-1 339:-1 357:-1 359:-1 360:-1 361:-1 364:-1 365:-1 366:-1 373:-1 386:-1 387:-1 388:-1 389:-1 390:-1 392:-1 395:-1 399:-1 400:-1 407:-1 413:-1 418:-1 422:-1 423:-1 447:-1 449:-1 461:-1 462:-1 465:-1 472:-1 476:-1 477:-1 483:-1 496:-1 497:-1 501:-1 503:-1 513:-1 529:-1 531:-1 538:-1 539:-1 550:-1 608:-1 626:-1 642:-1 654:-1 662:-1 674:-1 678:-1 680:-1 732:-1 735:-1 762:-1 763:-1 768:-1 793:-1 797:-1 807:-1 810:-1 822:-1 830:-1 836:-1 839:-1 840:-1 841:-1 842:-1 843:-1 853:-1 860:-1 861:-1 867:-1 869:-1 919:-1 920:-1 946:-1 973:-1 974:-1 985:-1 986:-1 987:-1 990:-1 992:-1 993:-1 1005:-1 1009:-1 1010:-1 1015:-1 1016:-1 1017:-1 1018:-1 1019:-1 1020:-1 1021:-1 1022:-1 1026:-1 1028:-1 1033:-1 1034:-1 1050:-1 1062:-1 1072:-1 1085:-1 1105:-1 1107:-1 1112:-1 1113:-1 1117:-1 1191:-1 1215:-1 1222:-1 1238:-1 1239:-1 1241:-1 1264:-1 1281:-1 1290:-1 1321:-1 1322:-1 1323:-1 1341:-1 1343:-1 1352:-1 1356:-1 1357:-1 1362:-1 1364:-1 1378:-1 1382:-1 1383:-1 1384:-1 1385:-1 1386:-1 1387:-1 1388:-1 1402:-1 1461:-1 1481:-1 1482:-1 1492:-1 1495:-1 1496:-1 1514:-1 1520:-1 1541:-1 1580:-1 1594:-1 1595:-1 1596:-1 1598:-1 1622:-1 1635:-1 1644:-1 1652:-1 1655:-1 1663:-1 1671:-1 1674:-1 1676:-1 1695:-1 1700:-1 1701:-1 1707:-1 1709:-1 1738:-1 1739:-1 1742:-1 1750:-1 1755:-1 1763:-1 1781:-1 1785:-1 1786:-1 1787:-1 1805:-1 1830:-1 1832:-1 1833:-1 1836:-1 1873:-1 1875:-1 1885:-1 1908:-1 1917:-1 1921:-1 1922:-1 1923:-1 1924:-1 1927:-1 1928:-1 1929:-1 1930:-1 1932:-1 1940:-1 1941:-1 1942:-1 1952:-1 1959:-1 1960:-1 1982:-1 1985:-1 1992:-1 1993:-1 1996:-1 2003:-1 2005:-1 2006:-1 2007:-1 2012:-1 2019:-1 2020:-1 2022:-1 2023:-1 2025:-1 2032:-1 2050:-1 2051:-1 2065:-1 2066:-1 2098:-1 2104:-1 2114:-1 2116:-1 2148:-1 2149:-1 2173:-1 2270:-1 2286:-1 2293:-1 2294:-1 2295:-1 2296:-1 2299:-1 2307:-1 2311:-1 2313:-1 2318:-1 2324:-1 2325:-1 2330:-1 2340:-1 2341:-1 2342:-1 2351:-1 2356:-1 2357:-1 2368:-1 2370:-1 2379:-1 2380:-1 2383:-1 2384:-1 2385:-1 2388:-1 2390:-1 2391:-1 2427:-1 2436:-1 2437:-1 2438:-1 2439:-1 2440:-1 2471:-1 2474:-1 2479:-1 2481:-1 2482:-1 2488:-1 2493:-1 2496:-1 2499:-1 2500:-1 2501:-1 2502:-1 2503:-1 2504:-1 2508:-1 2509:-1 2510:-1 2516:-1 2518:-1 2521:-1 2523:-1 2527:-1 2528:-1 2530:-1 2531:-1 2538:-1 2540:-1 2547:-1 2549:-1 2550:-1 2558:-1 2559:-1 2562:-1 2563:-1 2566:-1 2569:-1 2571:-1 2575:-1 2578:-1 2580:-1 2593:-1 2609:-1 2617:-1 2621:-1 2634:-1 2635:-1 2636:-1 2642:-1 2643:-1 2650:-1 2651:-1 2655:-1 2657:-1 2659:-1 2660:-1 2674:-1 2679:-1 2680:-1 2681:-1 2682:-1 2686:-1 2699:-1 2700:-1 2701:-1 2702:-1 2703:-1 2713:-1 2717:-1 2719:-1 2720:-1 2731:-1 2735:-1 2738:-1 2748:-1 2753:-1 2755:-1 2779:-0.5 2780:-1 2781:-1 2782:-1 2784:-1 2787:-1 2790:-1 2791:-1 2799:-1 2800:-1 2806:-1 2816:-1 2818:-1 2824:-1 2850:-1 2851:-1 2855:-1 2856:-1 2858:-1 2862:-1 2864:-1 2869:-1 2876:-1 2877:-1 2880:-1 2882:-1 2888:-1 2902:-1 2916:-1 2928:-1 
0.01103674717527795 6:-1 34:-1 39:-1 46:-1 49:-1 51:-1 52:-1 76:-1 78:-1 94:-1 104:-1 117:-1 121:-1 130:-1 139:-1 141:-1 143:-1 146:-0.333333 156:-1 160:-1 164:-1 169:-1 170:-1 177:-1 178:-1 179:-1 188:-1 191:-1 195:-1 201:-1 203:-1 216:-1 218:-1 219:-1 228:-1 229:-1 230:-1 233:-1 243:-1 249:-1 252:-1 257:-1 261:1 263:-1 275:-1 277:-1 298:-1 306:-1 309:-1 318:-1 320:-1 324:-1 339:-1 357:-1 359:-1 360:-1 361:-1 364:-1 365:-1 366:-1 373:-1 386:-1 387:-1 388:-1 389:-1 390:-1 392:-1 395:-1 399:-1 400:-1 407:-1 413:-1 418:-1 422:-1 423:1 447:-1 449:-1 461:-1 462:-1 465:-1 472:-1 476:-1 477:-1 483:-1 496:-1 497:-1 501:-1 503:-1 513:-1 529:-1 531:-1 538:-1 539:-1 550:-1 608:-1 626:-1 642:-1 654:-1 662:-1 674:-1 678:-1 680:1 732:-1 735:-1 762:-1 763:-1 768:-1 793:-1 797:-1 807:-1 810:-1 822:-1 830:-1 836:-1 839:1 840:-1 841:-1 842:-1 843:-1 853:-1 860:-1 861:-1 867:-1 869:-1 919:-1 920:-1 946:-1 973:-1 974:-1 985:-1 986:-1 987:-1 990:-1 992:-1 993:-1 1005:-1 1009:-1 1010:-1 1015:-1 1016:-1 1017:-1 1018:-1 1019:-1 1020:-1 1021:-1 1022:-1 1026:-1 1028:-1 1033:-1 1034:-1 1050:-1 1062:-1 1072:-1 1085:-1 1105:-1 1107:-1 1112:-1 1113:-1 1117:-1 1191:-1 1215:-1 1222:-1 1238:-1 1239:-1 1241:-1 1264:-1 1281:-1 1290:-1 1321:-1 1322:1 1323:-1 1341:-1 1343:-1 1352:-1 1356:-1 1357:-1 1362:-1 1364:-1 1378:-1 1382:-1 1383:-1 1384:-1 1385:-1 1386:-1 1387:-1 1388:-1 1402:-1 1461:-1 1481:-1 1482:-1 1492:-1 1495:-1 1496:-1 1514:-1 1520:-1 1541:-1 1580:-1 1594:-1 1595:-1 1596:-1 1598:-1 1622:-1 1635:-1 1644:-1 1652:-1 1655:-1 1663:-1 1671:-1 1674:-1 1676:-1 1695:-1 1700:-1 1701:-1 1707:-1 1709:1 1738:-1 1739:-1 1742:-1 1750:-1 1755:-1 1763:-1 1781:-1 1785:-1 1786:-1 1787:-1 1805:-1 1830:-1 1832:-1 1833:-1 1836:-1 1873:-1 1875:-1 1885:-1 1908:-1 1917:1 1921:-1 1922:-1 1923:-1 1924:-1 1927:-1 1928:-1 1929:-1 1930:-1 1932:-1 1940:-1 1941:-1 1942:-1 1952:-1 1959:-1 1960:-1 1982:-1 1985:-1 1992:-1 1993:-1 1996:-1 2003:-1 2005:-1 2006:-1 2007:-1 2012:-1 2019:-1 2020:-1 2022:-1 2023:-1 2025:-1 2032:-1 2050:-1 2051:-1 2065:-1 2066:-1 2098:-1 2104:-1 2114:-1 2116:-1 2148:-1 2149:-1 2173:-1 2270:-1 2286:-1 2293:-1 2294:-1 2295:-1 2296:-1 2299:-1 2307:-1 2311:-1 2313:-1 2318:-1 2324:-1 2325:-1 2330:-1 2340:-1 2341:-1 2342:-1 2351:-1 2356:-1 2357:-1 2368:-1 2370:-1 2379:-1 2380:-1 2383:-1 2384:-1 2385:-1 2388:-1 2390:-1 2391:-1 2427:-1 2436:-1 2437:-1 2438:-1 2439:-1 2440:-1 2471:-1 2474:-1 2479:-1 2481:-1 2482:-1 2488:-1 2493:-1 2496:-1 2499:-1 2500:-0.333333 2501:-1 2502:-1 2503:-1 2504:-1 2508:-1 2509:-1 2510:-1 2516:-1 2518:-1 2521:-1 2523:-1 2527:-1 2528:-1 2530:-1 2531:-1 2538:-1 2540:-1 2547:-1 2549:-1 2550:-1 2558:-1 2559:-1 2562:-1 2563:-1 2566:-1 2569:-1 2571:-1 2575:-1 2578:-1 2580:-1 2593:-1 2609:1 2617:-1 2621:-1 2634:-1 2635:-1 2636:-1 2642:-1 2643:-1 2650:-1 2651:-1 2655:-1 2657:-1 2659:-1 2660:-1 2674:-1 2679:-1 2680:-1 2681:-1 2682:-1 2686:-1 2699:-1 2700:-1 2701:-1 2702:-1 2703:-1 2713:-1 2717:-1 2719:-1 2720:-1 2731:-1 2735:-1 2738:1 2748:-1 2753:-1 2755:-1 2779:-1 2780:-1 2781:-1 2782:-1 2784:-1 2787:-1 2790:-1 2791:-1 2799:-1 2800:-1 2806:-1 2816:-1 2818:-1 2824:-1 2850:-1 2851:-1 2855:-1 2856:-1 2858:-1 2862:-1 2864:-1 2869:-1 2876:-1 2877:-1 2880:-1 2882:-1 2888:-1 2902:-1 2916:-1 2928:-1 
0.01789271999609025 6:-1 34:-1 39:-1 46:-1 49:-1 51:1 52:-1 76:-1 78:-1 94:-1 104:-1 117:-1 121:-1 130:-1 139:-1 141:-1 143:-1 146:-1 156:-1 160:-1 164:-1 169:-1 170:-1 177:-1 178:-1 179:-1 188:-1 191:-1 195:-1 201:-1 203:-1 216:-1 218:-1 219:-1 228:-1 229:-1 230:-1 233:-1 243:-1 249:-1 252:-1 257:-1 261:-1 263:-1 275:-1 277:-1 298:-1 306:-1 309:-1 318:-1 320:-1 324:-1 339:-1 357:-1 359:-1 360:-1 361:-1 364:-1 365:-1 366:-1 373:-1 386:-1 387:-1 388:-1 389:-1 390:-1 392:-1 395:-1 399:-1 400:-1 407:-1 413:-1 418:-1 422:-1 423:-1 447:-1 449:-1 461:-1 462:-1 465:-1 472:-1 476:-1 477:-1 483:-1 496:-1 497:-1 501:-1 503:-1 513:-1 529:-1 531:-1 538:-1 539:-1 550:-1 608:-1 626:-1 642:-1 654:-1 662:-1 674:-1 678:-1 680:-1 732:-1 735:-1 762:-1 763:-1 768:-1 793:-1 797:-1 807:-1 810:-1 822:-1 830:-1 836:-1 839:-1 840:-1 841:-1 842:-1 843:-1 853:-1 860:-1 861:-1 867:-1 869:-1 919:-1 920:-1 946:-1 973:-1 974:-1 985:-1 986:-1 987:-1 990:-1 992:-1 993:-1 1005:-1 1009:-1 1010:-1 1015:-1 1016:-1 1017:-1 1018:-1 1019:-1 1020:-1 1021:-1 1022:-1 1026:-1 1028:-1 1033:-1 1034:-1 1050:-1 1062:-1 1072:-1 1085:-1 1105:-1 1107:-1 1112:-1 1113:-1 1117:-1 1191:-1 1215:-1 1222:-1 1238:-1 1239:-1 1241:-1 1264:-1 1281:-1 1290:-1 1321:-1 1322:-1 1323:-1 1341:-1 1343:-1 1352:-1 1356:-1 1357:-1 1362:-1 1364:-1 1378:1 1382:-1 1383:-1 1384:-1 1385:-1 1386:-1 1387:-1 1388:-1 1402:-1 1461:-1 1481:-1 1482:-1 1492:-1 1495:-1 1496:-1 1514:-1 1520:-1 1541:-1 1580:-1 1594:-1 1595:-1 1596:-1 1598:-1 1622:-1 1635:-1 1644:-1 1652:-1 1655:-1 1663:-1 1671:-1 1674:-1 1676:-1 1695:-1 1700:-1 1701:-1 1707:-1 1709:-1 1738:-1 1739:-1 1742:-1 1750:-1 1755:-1 1763:-1 1781:-1 1785:-1 1786:-1 1787:-1 1805:-1 1830:-1 1832:-1 1833:-1 1836:-1 1873:-1 1875:-1 1885:-1 1908:-1 1917:-1 1921:-1 1922:-1 1923:-1 1924:-1 1927:-1 1928:-1 1929:-1 1930:-1 1932:-1 1940:-1 1941:-1 1942:-1 1952:-1 1959:-1 1960:-1 1982:-1 1985:-1 1992:-1 1993:-1 1996:-1 2003:-1 2005:-1 2006:-1 2007:-1 2012:-1 2019:-1 2020:1 2022:-1 2023:-1 2025:-1 2032:-1 2050:-1 2051:-1 2065:-1 2066:-1 2098:-1 2104:-1 2114:-1 2116:-1 2148:-1 2149:-1 2173:-1 2270:-1 2286:-1 2293:-1 2294:-1 2295:-1 2296:-1 2299:-1 2307:-1 2311:-1 2313:-1 2318:-1 2324:-1 2325:-1 2330:-1 2340:-1 2341:-1 2342:-1 2351:-1 2356:-1 2357:-1 2368:-1 2370:-1 2379:-1 2380:-1 2383:-1 2384:-1 2385:-1 2388:-1 2390:-1 2391:-1 2427:-1 2436:-1 2437:-1 2438:-1 2439:-1 2440:-1 2471:-1 2474:-1 2479:-1 2481:-1 2482:-1 2488:-1 2493:-1 2496:-1 2499:-1 2500:-1 2501:-1 2502:-1 2503:-1 2504:-1 2508:-1 2509:-1 2510:-1 2516:-1 2518:-1 2521:-1 2523:-1 2527:-1 2528:-1 2530:-1 2531:-1 2538:-1 2540:-1 2547:-1 2549:-1 2550:-1 2558:-1 2559:-1 2562:-1 2563:-1 2566:-1 2569:-1 2571:-1 2575:-1 2578:-1 2580:-1 2593:-1 2609:-1 2617:-1 2621:-1 2634:-1 2635:-1 2636:-1 2642:-1 2643:-1 2650:-1 2651:-1 2655:-1 2657:-1 2659:-1 2660:-1 2674:-1 2679:-1 2680:-1 2681:-1 2682:-1 2686:-1 2699:-1 2700:-1 2701:-1 2702:-1 2703:-1 2713:-1 2717:-1 2719:-1 2720:-1 2731:-1 2735:-1 2738:-1 2748:-1 2753:-1 2755:-1 2779:-0.5 2780:-1 2781:-1 2782:-1 2784:-1 2787:-1 2790:-1 2791:-1 2799:-1 2800:-1 2806:-1 2816:-1 2818:-1 2824:-1 2850:-1 2851:-1 2855:-1 2856:-1 2858:-1 2862:-1 2864:-1 2869:-1 2876:-1 2877:-1 2880:-1 2882:-1 2888:-1 2902:-1 2916:-1 2928:-1 
0.00580584170307809 6:-1 34:-1 39:-1 46:-1 49:-1 51:-1 52:-1 76:-1 78:-1 94:-1 104:-1 117:-1 121:-1 130:-1 139:-1 141:-1 143:-1 146:-1 156:-1 160:-1 164:-1 169:-1 170:-1 177:-1 178:-1 179:-1 188:-1 191:-1 195:-1 201:-1 203:-1 216:1 218:-1 219:-1 228:-1 229:-1 230:-1 233:-1 243:-1 249:-1 252:-1 257:-1 261:-1 263:-1 275:-1 277:-1 298:-1 306:-1 309:-1 318:-1 320:-1 324:-1 339:-1 357:-1 359:-1 360:-1 361:-1 364:-1 365:-1 366:-1 373:-1 386:-1 387:-1 388:-1 389:-1 390:-1 395:1 399:-1 400:-1 407:-1 413:-1 418:-1 422:-1 423:-1 447:-1 449:-1 461:-1 462:-1 465:-1 472:-1 476:-1 477:-1 483:-1 496:-1 497:-1 501:-1 503:-1 513:-1 529:-1 531:-1 538:-1 539:-1 550:-1 608:-1 626:-1 642:-1 654:-1 662:-1 674:-1 678:-1 680:-1 732:-1 735:-1 762:-1 763:-1 768:-1 793:-1 797:-1 807:-1 810:-1 822:-1 830:-1 836:-1 839:-1 840:-1 841:-1 842:-1 843:-1 853:-1 860:-1 861:-1 867:-1 869:-1 919:-1 920:-1 946:-1 973:-1 974:-1 985:-1 986:-1 987:-1 990:-1 992:-1 993:-1 1005:-1 1009:-1 1010:-1 1015:-1 1016:-1 1017:-1 1018:-1 1019:-1 1020:-1 1021:-1 1022:-1 1026:-1 1028:-1 1033:-1 1034:-1 1050:-1 1062:-1 1072:-1 1085:-1 1105:-1 1107:-1 1112:-1 1113:-1 1117:-1 1191:-1 1215:-1 1222:-1 1238:-1 1239:-1 1241:-1 1264:-1 1281:-1 1290:-1 1321:-1 1322:-1 1323:-1 1341:-1 1343:-1 1352:-1 1356:-1 1357:-1 1362:-1 1364:-1 1378:-1 1382:-1 1383:-1 1384:-1 1385:-1 1386:-1 1387:-1 1388:-1 1402:-1 1461:-1 1481:-1 1482:-1 1492:-1 1495:-1 1496:-1 1514:-1 1520:-1 1541:-1 1580:-1 1594:-1 1595:-1 1596:-1 1598:-1 1622:-1 1635:-1 1644:-1 1652:-1 1655:-1 1663:-1 1671:-1 1674:-1 1676:-1 1695:-1 1700:-1 1701:-1 1707:-1 1709:-1 1738:-1 1739:-1 1742:-1 1750:-1 1755:-1 1763:-1 1781:-1 1785:-1 1786:-1 1787:-1 1805:-1 1830:-1 1832:-1 1833:-1 1836:-1 1873:-1 1875:-1 1885:-1 1908:-1 1917:-1 1921:-1 1922:-1 1923:-1 1924:-1 1927:-1 1928:-1 1929:-1 1930:-1 1932:-1 1940:-1 1941:-1 1942:-1 1952:-1 1959:-1 1960:-1 1982:-1 1985:-1 1992:-1 1993:-1 1996:-1 2003:-1 2005:-1 2006:-1 2007:-1 2012:-1 2019:-1 2020:-1 2022:-1 2023:-1 2025:-1 2032:-1 2050:-1 2051:-1 2065:-1 2066:-1 2098:-1 2104:-1 2114:-1 2116:-1 2148:-1 2149:-1 2173:-1 2270:-1 2286:-1 2293:-1 2294:-1 2295:-1 2296:-1 2299:-1 2307:-1 2311:-1 2313:-1 2318:-1 2324:-1 2325:1 2330:-1 2340:-1 2341:-1 2342:-1 2351:-1 2356:-1 2357:-1 2368:-1 2370:-1 2379:-1 2380:-1 2383:-1 2384:-1 2385:-1 2388:-1 2390:-1 2391:-1 2427:-1 2436:-1 2437:-1 2438:-1 2439:-1 2440:-1 2471:-1 2474:-1 2479:-1 2481:-1 2482:-1 2488:-1 2493:1 2496:-1 2499:-1 2500:0.333333 2501:-1 2502:-1 2503:-1 2504:-1 2508:-1 2509:-1 2510:-1 2516:-1 2518:-1 2521:-1 2523:-1 2527:-1 2528:-1 2530:-1 2531:-1 2538:-1 2540:-1 2547:-1 2549:-1 2550:-1 2558:-1 2559:-1 2562:-1 2563:-1 2566:-1 2569:-1 2571:-1 2575:-1 2578:-1 2580:-1 2593:-1 2609:-1 2617:-1 2621:-1 2634:-1 2635:-1 2636:-1 2642:-1 2643:-1 2650:-1 2651:-1 2655:-1 2657:-1 2659:-1 2660:-1 2674:-1 2679:-1 2680:-1 2681:-1 2682:-1 2686:-1 2699:-1 2700:-1 2701:-1 2702:-1 2703:-1 2713:-1 2717:-1 2719:-1 2720:-1 2731:1 2735:-1 2738:1 2748:-1 2753:-1 2755:-1 2779:-0.5 2780:-1 2781:1 2782:-1 2784:-1 2787:-1 2790:-1 2791:-1 2799:-1 2800:-1 2806:-1 2816:-1 2818:-1 2824:-1 2850:-1 2851:-1 2855:-1 2856:-1 2858:-1 2862:-1 2864:-1 2869:-1 2876:-1 2877:-1 2880:-1 2882:-1 2888:-1 2902:-1 2916:-1 2928:-1 
-0.0009598661862581202 6:-1 34:-1 39:-1 46:-1 49:-1 51:-1 52:1 76:-1 78:-1 94:-1 104:-1 117:-1 121:-1 130:-1 139:-1 141:-1 143:-1 146:-1 156:-1 160:-1 164:-1 169:-1 170:-1 177:-1 178:-1 179:-1 188:-1 191:-1 195:-1 201:-1 203:-1 216:-1 218:-1 219:-1 228:-1 229:-1 230:-1 233:-1 249:-1 252:-1 257:-1 261:-1 263:-1 275:-1 277:-1 298:-1 306:-1 318:-1 320:-1 324:-1 339:-1 357:-1 359:-1 360:-1 361:-1 364:-1 365:-1 366:-1 373:-1 386:-1 387:-1 388:-1 389:-1 390:-1 392:-1 395:-1 399:-1 400:-1 407:-1 413:-1 418:-1 422:-1 423:-1 447:-1 449:-1 461:-1 462:-1 465:-1 472:-1 476:-1 477:-1 483:-1 496:-1 497:-1 501:-1 503:-1 513:-1 529:-1 531:-1 538:-1 539:-1 550:-1 608:-1 626:-1 642:-1 654:-1 662:-1 674:-1 678:-1 680:-1 732:-1 735:-1 762:-1 763:-1 768:-1 793:-1 797:-1 807:-1 810:-1 822:-1 830:-1 836:-1 839:-1 840:-1 841:-1 842:-1 843:-1 853:-1 860:-1 861:-1 867:-1 869:-1 919:-1 920:-1 946:-1 973:-1 974:-1 985:-1 986:-1 987:-1 990:-1 992:-1 993:-1 1005:-1 1009:-1 1010:-1 1015:-1 1016:-1 1017:-1 1018:-1 1019:-1 1020:-1 1021:-1 1022:-1 1026:-1 1028:-1 1033:-1 1034:-1 1050:-1 1062:-1 1072:-1 1085:-1 1105:-1 1107:-1 1112:-1 1113:-1 1117:-1 1191:-1 1215:-1 1222:-1 1238:-1 1239:-1 1241:-1 1264:-1 1281:-1 1290:-1 1321:-1 1322:-1 1323:-1 1341:-1 1343:-1 1352:-1 1356:-1 1357:-1 1362:-1 1364:-1 1378:-1 1382:-1 1383:-1 1384:-1 1385:-1 1386:-1 1387:-1 1388:-1 1402:-1 1461:-1 1481:-1 1482:-1 1492:-1 1495:-1 1496:-1 1514:-1 1520:-1 1541:-1 1580:-1 1594:-1 1595:-1 1596:-1 1598:-1 1622:-1 1635:-1 1644:-1 1652:-1 1655:-1 1663:-1 1671:-1 1674:-1 1676:-1 1695:-1 1700:-1 1701:-1 1707:-1 1709:-1 1738:-1 1739:-1 1742:-1 1750:-1 1755:-1 1763:-1 1781:-1 1785:-1 1786:-1 1787:-1 1805:-1 1830:-1 1832:-1 1833:-1 1836:-1 1873:-1 1875:1 1885:-1 1908:-1 1917:-1 1921:-1 1922:-1 1923:-1 1924:-1 1927:-1 1928:-1 1929:-1 1930:-1 1932:-1 1940:-1 1941:-1 1942:-1 1952:-1 1959:-1 1960:-1 1982:-1 1985:-1 1992:-1 1993:-1 1996:-1 2003:-1 2005:-1 2006:-1 2007:-1 2012:-1 2019:-1 2020:-1 2022:-1 2023:-1 2025:-1 2032:-1 2050:-1 2051:-1 2065:-1 2066:-1 2098:-1 2104:-1 2114:-1 2116:-1 2148:-1 2149:-1 2173:-1 2270:-1 2286:-1 2293:-1 2294:-1 2295:-1 2296:-1 2299:-1 2307:-1 2311:-1 2313:-1 2318:-1 2324:-1 2325:-1 2330:-1 2340:-1 2341:-1 2342:-1 2351:-1 2356:-1 2357:-1 2368:-1 2370:-1 2379:-1 2380:-1 2383:-1 2384:-1 2385:-1 2388:-1 2390:-1 2391:-1 2427:-1 2436:-1 2437:-1 2438:-1 2439:-1 2440:-1 2471:-1 2474:-1 2479:-1 2481:-1 2482:-1 2488:-1 2493:-1 2496:-1 2499:-1 2500:-1 2501:-1 2502:1 2503:-1 2504:-1 2508:-1 2509:-1 2510:-1 2516:-1 2518:-1 2521:-1 2523:-1 2527:-1 2528:-1 2530:-1 2531:-1 2538:-1 2540:-1 2547:-1 2549:-1 2550:-1 2558:-1 2559:-1 2562:-1 2563:-1 2566:-1 2569:-1 2571:-1 2575:-1 2578:-1 2580:-1 2593:-1 2609:-1 2617:-1 2621:-1 2634:-1 2635:-1 2636:-1 2642:-1 2643:-1 2650:-1 2651:-1 2655:-1 2657:-1 2659:-1 2660:-1 2674:-1 2679:-1 2680:-1 2681:-1 2682:-1 2686:-1 2699:-1 2700:-1 2701:-1 2702:-1 2703:-1 2713:-1 2717:-1 2719:-1 2720:-1 2731:-1 2735:-1 2738:-1 2748:-1 2753:-1 2755:-1 2779:-1 2780:-1 2781:-1 2782:-1 2784:-1 2787:-1 2790:-1 2791:-1 2799:-1 2800:-1 2806:-1 2816:-1 2818:-1 2824:-1 2850:-1 2851:-1 2855:-1 2856:-1 2858:-1 2862:-1 2864:-1 2869:-1 2876:-1 2877:-1 2880:-1 2882:-1 2888:-1 2902:-1 2916:-1 2928:-1 
0.004731641125870681 6:-1 34:-1 39:-1 46:-1 49:-1 51:-1 52:-1 76:-1 78:-1 94:-1 104:-1 117:-1 121:-1 130:-1 139:-1 141:1 143:-1 146:-1 156:-1 160:-1 164:-1 169:-1 170:-1 177:-1 178:-1 179:1 188:-1 191:-1 195:-1 201:-1 203:-1 216:-1 218:-1 219:-1 228:-1 229:-1 230:-1 233:-1 249:-1 252:-1 257:-1 261:-1 263:-1 275:-1 277:-1 298:-1 306:-1 309:-1 318:-1 320:-1 324:-1 339:-1 357:-1 359:-1 360:-1 361:-1 364:-1 365:-1 366:-1 373:-1 386:-1 387:-1 388:-1 389:-1 390:-1 392:-1 395:-1 399:-1 400:-1 407:-1 413:-1 418:-1 422:-1 423:-1 447:-1 449:-1 461:-1 462:-1 465:-1 472:-1 476:1 477:-1 483:-1 496:-1 497:-1 501:-1 503:-1 513:-1 529:-1 531:-1 538:-1 539:-1 550:-1 608:-1 626:-1 642:-1 654:-1 662:-1 674:-1 678:-1 680:1 732:-1 735:-1 762:-1 763:-1 768:-1 793:-1 797:-1 807:-1 810:1 822:-1 830:-1 836:-1 839:-1 840:-1 841:-1 842:-1 843:-1 853:-1 860:-1 861:-1 867:-1 869:-1 919:-1 920:-1 946:-1 973:1 974:-1 985:-1 986:-1 987:-1 990:-1 992:-1 993:-1 1005:-1 1009:-1 1010:-1 1015:-1 1016:-1 1017:-1 1018:-1 1019:-1 1020:-1 1021:-1 1022:-1 1026:-1 1028:-1 1033:-1 1034:-1 1050:-1 1062:-1 1072:-1 1085:-1 1105:-1 1107:-1 1112:-1 1113:-1 1117:-1 1191:-1 1215:-1 1222:-1 1238:-1 1239:-1 1241:-1 1264:-1 1281:-1 1290:-1 1321:-1 1322:-1 1323:1 1341:-1 1343:-1 1352:-1 1356:-1 1357:-1 1362:-1 1364:-1 1378:-1 1382:-1 1383:-1 1384:-1 1385:-1 1386:-1 1387:-1 1388:-1 1402:-1 1461:-1 1481:-1 1482:-1 1492:-1 1495:-1 1496:-1 1514:-1 1520:-1 1541:-1 1580:-1 1594:-1 1595:-1 1596:-1 1598:-1 1622:-1 1635:-1 1644:-1 1652:-1 1655:-1 1663:-1 1671:-1 1674:-1 1676:-1 1695:-1 1700:-1 1701:-1 1707:-1 1709:1 1738:-1 1739:-1 1742:-1 1750:-1 1755:-1 1763:-1 1781:-1 1785:-1 1787:-1 1805:-1 1830:-1 1832:-1 1833:-1 1836:-1 1873:-1 1875:-1 1885:-1 1908:-1 1917:-1 1921:-1 1922:-1 1923:-1 1924:-1 1927:-1 1928:-1 1929:-1 1930:-1 1932:-1 1940:-1 1941:-1 1942:-1 1952:-1 1959:-1 1960:-1 1982:-1 1985:-1 1992:1 1993:-1 1996:-1 2003:-1 2005:1 2006:-1 2007:-1 2012:-1 2019:-1 2020:-1 2022:-1 2023:-1 2025:-1 2032:-1 2050:-1 2051:-1 2065:-1 2066:-1 2098:-1 2104:-1 2114:-1 2116:-1 2148:-1 2149:-1 2173:-1 2270:-1 2286:-1 2293:-1 2294:-1 2295:-1 2296:-1 2299:-1 2307:-1 2311:-1 2313:-1 2318:-1 2324:-1 2325:-1 2330:-1 2340:-1 2341:-1 2342:-1 2351:-1 2356:-1 2357:-1 2368:-1 2370:-1 2379:-1 2380:-1 2383:-1 2384:-1 2385:-1 2388:-1 2390:-1 2391:-1 2427:-1 2436:-1 2437:1 2438:-1 2439:-1 2440:1 2471:-1 2474:-1 2479:-1 2481:-1 2482:-1 2488:-1 2493:-1 2496:-1 2499:-1 2500:-1 2501:-1 2502:-1 2503:-1 2504:-1 2508:-1 2509:-1 2510:-1 2516:-1 2518:-1 2521:-1 2523:-1 2527:-1 2528:-1 2530:-1 2531:-1 2538:-1 2540:-1 2547:-1 2549:-1 2550:-1 2558:-1 2559:-1 2562:1 2563:-1 2566:-1 2569:-1 2571:-1 2575:1 2578:-1 2580:-1 2593:-1 2609:-1 2617:-1 2621:-1 2634:-1 2635:-1 2636:-1 2642:-1 2643:-1 2650:-1 2651:-1 2655:-1 2657:-1 2659:-1 2660:-1 2674:-1 2679:-1 2680:-1 2681:-1 2682:-1 2686:-1 2699:-1 2700:-1 2701:-1 2702:-1 2703:1 2713:-1 2717:-1 2719:-1 2720:-1 2731:-1 2735:-1 2738:-1 2748:-1 2753:-1 2755:-1 2779:-1 2780:-1 2781:-1 2782:-1 2784:-1 2787:-1 2790:-1 2791:-1 2799:-1 2800:-1 2806:-1 2816:-1 2818:-1 2824:-1 2850:-1 2851:-1 2855:-1 2856:-1 2858:-1 2862:-1 2864:-1 2869:-1 2876:-1 2877:-1 2880:-1 2882:-1 2888:-1 2902:-1 2916:-1 2928:-1 
0.02069740424151964 6:-1 34:-1 39:-1 46:-1 49:-1 51:-1 52:-1 76:-1 78:-1 94:-1 104:-1 117:-1 121:-1 130:-1 139:-1 141:-1 143:-1 146:-0.333333 156:-1 160:-1 164:-1 169:-1 170:-1 177:-1 178:-1 179:-1 188:-1 191:-1 195:-1 201:-1 203:-1 216:-1 218:-1 219:-1 228:-1 229:-1 230:-1 233:-1 243:-1 249:-1 252:-1 257:-1 261:-1 263:-1 277:-1 298:-1 306:-1 309:-1 318:-1 320:-1 324:-1 339:-1 357:-1 359:-1 360:-1 361:-1 364:-1 365:-1 366:-1 373:-1 386:-1 387:-1 388:-1 389:-1 390:-1 392:-1 395:-1 399:-1 400:-1 407:-1 413:-1 418:-1 422:-1 423:-1 447:-1 449:-1 461:-1 462:-1 465:-1 472:-1 476:-1 477:-1 483:-1 496:-1 497:-1 501:-1 503:-1 513:1 529:-1 531:-1 538:-1 539:-1 550:-1 608:-1 626:-1 642:-1 654:-1 662:-1 674:-1 678:-1 680:1 732:-1 735:-1 762:-1 763:-1 768:-1 793:-1 797:-1 807:-1 810:-1 822:-1 830:-1 836:-1 839:-1 840:-1 841:-1 842:-1 843:-1 853:-1 860:-1 861:-1 867:-1 869:-1 919:-1 920:-1 946:-1 973:-1 974:-1 985:-1 986:-1 987:-1 990:-1 992:-1 993:-1 1005:-1 1009:-1 1010:-1 1015:-1 1016:-1 1017:-1 1018:-1 1019:-1 1020:-1 1021:-1 1022:-1 1026:-1 1028:-1 1033:-1 1034:-1 1050:0.333333 1062:-1 1072:-1 1085:-1 1105:-1 1107:-1 1112:-1 1113:-1 1117:-1 1191:-1 1215:-1 1222:-1 1238:-1 1239:-1 1241:-1 1264:-1 1281:-1 1290:-1 1321:-1 1322:-1 1323:-1 1341:-1 1343:-1 1352:-1 1356:-1 1357:-1 1362:-1 1364:-1 1378:-1 1382:-1 1383:-1 1384:-1 1386:-1 1387:-1 1388:-1 1402:-1 1461:-1 1481:-1 1482:-1 1492:-1 1495:-1 1496:-1 1514:-1 1520:-1 1541:-1 1580:-1 1594:-1 1595:-1 1596:-1 1598:-1 1622:-1 1635:-1 1644:-1 1652:-1 1655:-1 1663:-1 1671:-1 1674:-1 1676:-1 1695:-1 1700:-1 1701:-1 1707:-1 1709:-1 1738:-1 1739:-1 1742:-1 1750:-1 1755:-1 1763:-1 1781:-1 1785:-1 1787:-1 1805:-1 1830:-1 1832:-1 1833:-1 1873:-1 1875:-1 1885:-1 1908:-1 1917:-1 1921:-1 1922:-1 1923:-1 1924:-1 1927:-1 1928:-1 1929:-1 1930:-1 1932:-1 1940:-1 1941:-1 1942:-1 1952:-1 1959:-1 1960:-1 1982:-1 1985:-1 1992:-1 1993:-1 1996:-1 2003:-1 2005:-1 2006:-1 2007:-1 2012:-1 2019:-1 2020:-1 2022:-1 2023:-1 2025:-1 2032:-1 2050:-1 2051:-1 2065:-1 2066:-1 2098:-1 2104:-1 2114:-1 2116:-1 2148:-1 2149:-1 2173:-1 2270:-1 2286:-1 2293:1 2294:-1 2295:1 2296:-1 2299:-1 2307:-1 2311:-1 2313:-1 2318:-1 2324:-1 2325:-1 2330:-1 2340:-1 2341:-1 2342:-1 2351:-1 2356:-1 2357:-1 2368:-1 2370:-1 2379:-0.333333 2380:-1 2383:-1 2384:-1 2385:-1 2388:-1 2390:-1 2391:-1 2427:-1 2436:-1 2437:-1 2438:-1 2439:-1 2440:-1 2471:-1 2474:-1 2479:-1 2481:-1 2482:-1 2488:-1 2493:-1 2496:-1 2499:-1 2500:-1 2501:-1 2502:-1 2503:-1 2504:-1 2508:-1 2509:-1 2510:-1 2516:-1 2518:-1 2521:-1 2523:-1 2527:-1 2528:-1 2530:-1 2531:-1 2538:-1 2540:-1 2547:-1 2549:-1 2550:-1 2558:-1 2559:-1 2562:-1 2563:-1 2566:-1 2569:-1 2571:-1 2575:-1 2578:-1 2580:-1 2593:-1 2609:-1 2617:-1 2621:-1 2634:-1 2635:-1 2636:-1 2642:-1 2643:-1 2650:-1 2651:-1 2655:-1 2657:-1 2659:-1 2660:-1 2674:-1 2679:-1 2680:-1 2681:-1 2682:-1 2686:-1 2699:-1 2700:-1 2701:-1 2702:-1 2703:-1 2713:-1 2717:-1 2719:-1 2720:-1 2731:-1 2735:-1 2738:-1 2748:-1 2753:1 2755:-1 2779:-1 2780:-1 2781:-1 2782:-1 2784:-1 2787:-1 2790:-1 2791:-1 2799:-1 2800:-1 2806:-1 2816:-1 2818:-1 2824:-1 2850:-1 2851:-1 2855:-1 2856:-1 2858:-1 2862:-1 2864:-1 2869:-1 2876:-1 2877:-1 2880:-1 2882:-1 2888:-1 2902:-1 2916:-1 2928:-1 
-0.08664500312565171 6:-1 34:-1 39:-1 46:-1 49:-1 51:-1 52:-1 76:-1 78:-1 94:-1 104:-1 117:-1 121:-1 130:-1 139:-1 141:-1 143:-1 146:-1 156:-1 160:-1 164:-1 169:-1 170:-1 177:-1 178:-1 179:-1 188:-1 191:-1 195:-1 201:-1 203:-1 216:-1 218:-1 219:-1 228:-1 229:-1 230:-1 233:-1 243:-1 249:-1 252:-1 257:-1 261:-1 263:-1 275:-1 277:-1 298:-1 306:-1 309:-1 318:-1 320:-1 324:-1 339:-1 357:-1 359:-1 360:-1 361:-1 364:-1 365:-1 366:-1 373:-1 386:-1 387:-1 388:-1 389:-1 390:-1 392:-1 395:-1 399:-1 400:-1 407:-1 413:-1 418:-1 422:-1 423:-1 447:-1 449:-1 461:-1 462:-1 465:-1 472:-1 476:-1 477:-1 483:-1 496:-1 497:-1 501:-1 503:-1 513:-1 529:-1 531:-1 538:-1 539:-1 550:-1 608:-1 626:-1 642:-1 654:-1 662:-1 674:-1 678:-1 680:-1 732:-1 735:-1 762:-1 763:-1 768:-1 793:-1 797:-1 807:-1 810:-1 822:-1 830:-1 836:-1 839:-1 840:-1 841:-1 842:-1 843:-1 853:-1 860:-1 861:-1 867:-1 869:-1 919:-1 920:-1 946:-1 973:-1 974:-1 985:-1 986:-1 987:-1 990:-1 992:-1 993:-1 1005:-1 1009:-1 1010:-1 1015:-1 1016:-1 1017:-1 1018:-1 1019:-1 1020:-1 1021:-1 1022:-1 1026:-1 1028:-1 1033:-1 1034:-1 1050:-1 1062:-1 1072:-1 1085:-1 1105:-1 1107:-1 1112:-1 1113:-1 1117:-1 1191:-1 1215:-1 1222:-1 1238:-1 1239:-1 1241:-1 1264:-1 1281:-1 1290:-1 1321:-1 1322:-1 1323:-1 1341:-1 1343:-1 1352:-1 1356:-1 1357:-1 1362:-1 1364:-1 1378:-1 1382:-1 1383:-1 1384:-1 1385:-1 1386:-1 1387:-1 1388:-1 1402:-1 1461:-1 1481:-1 1482:-1 1492:-1 1495:-1 1496:-1 1514:-1 1520:-1 1541:-1 1580:-1 1594:-1 1595:-1 1596:-1 1598:-1 1622:-1 1635:-1 1644:-1 1652:-1 1655:-1 1663:-1 1671:-1 1674:-1 1676:-1 1695:-1 1700:-1 1701:-1 1707:-1 1709:-1 1738:-1 1739:-1 1742:-1 1750:-1 1755:-1 1763:-1 1781:-1 1785:-1 1786:-1 1787:-1 1805:-1 1830:-1 1832:-1 1833:-1 1836:-1 1873:-1 1875:-1 1885:-1 1908:-1 1917:-1 1921:-1 1922:-1 1923:-1 1924:-1 1927:-1 1928:-1 1929:-1 1930:-1 1932:-1 1940:-1 1941:-1 1942:-1 1952:-1 1959:-1 1960:-1 1982:-1 1985:-1 1992:-1 1993:-1 1996:-1 2003:-1 2005:-1 2006:-1 2007:-1 2012:-1 2019:-1 2020:-1 2022:-1 2023:-1 2025:-1 2032:-1 2050:-1 2051:-1 2065:-1 2066:-1 2098:-1 2104:-1 2114:-1 2116:-1 2148:-1 2149:-1 2173:-1 2270:-1 2286:-1 2293:-1 2294:-1 2295:-1 2296:-1 2299:-1 2307:-1 2311:-1 2313:-1 2318:-1 2324:-1 2325:-1 2330:-1 2340:-1 2341:-1 2342:-1 2351:-1 2356:-1 2357:-1 2368:-1 2370:-1 2379:-1 2380:-1 2383:-1 2384:-1 2385:-1 2388:-1 2390:-1 2391:-1 2427:-1 2436:-1 2437:-1 2438:-1 2439:-1 2440:-1 2471:-1 2474:-1 2479:-1 2481:-1 2482:-1 2488:-1 2493:-1 2496:-1 2499:-1 2500:-1 2501:-1 2502:-1 2503:-1 2504:-1 2508:-1 2509:-1 2510:-1 2516:-1 2518:-1 2521:-1 2523:-1 2527:-1 2528:-1 2530:-1 2531:-1 2538:-1 2540:-1 2547:-1 2549:-1 2550:-1 2558:-1 2559:-1 2562:-1 2563:-1 2566:-1 2569:-1 2571:-1 2575:-1 2578:-1 2580:-1 2593:-1 2609:-1 2617:-1 2621:-1 2634:-1 2635:-1 2636:-1 2642:-1 2643:-1 2650:-1 2651:-1 2655:-1 2657:-1 2659:-1 2660:-1 2674:-1 2679:-1 2680:-1 2681:-1 2682:-1 2686:-1 2699:-1 2700:-1 2701:-1 2702:-1 2703:-1 2713:-1 2717:-1 2719:-1 2720:-1 2731:-1 2735:-1 2738:-1 2748:-1 2753:-1 2755:-1 2779:-1 2780:-1 2781:-1 2782:-1 2784:-1 2787:-1 2790:-1 2791:-1 2799:-1 2800:-1 2806:-1 2816:-1 2818:-1 2824:-1 2850:-1 2851:-1 2855:-1 2856:-1 2858:-1 2862:-1 2864:-1 2869:-1 2876:-1 2877:-1 2880:-1 2882:-1 2888:-1 2902:-1 2916:-1 2928:-1 
0.001698421854484903 6:-1 34:-1 39:-1 46:-1 49:-1 51:-1 52:-1 76:-1 78:-1 94:-1 104:-1 117:-1 121:-1 130:-1 139:-1 141:-1 143:-1 146:-1 156:-1 160:-1 164:-1 169:-1 170:-1 177:-1 178:-1 179:-1 188:-1 191:-1 195:-1 201:-1 203:-1 216:-1 218:-1 219:-1 228:-1 229:-1 230:-1 233:-1 243:-1 249:-1 252:-1 257:-1 261:-1 263:-1 275:-1 277:-1 298:-1 306:-1 309:-1 318:-1 320:-1 324:-1 339:-1 357:-1 359:-1 360:-1 361:-1 364:-1 365:-1 366:-1 373:-1 386:-1 387:-1 388:-1 389:-1 390:-1 395:-1 399:-1 400:-1 407:-1 413:-1 418:-1 422:-1 423:-1 447:-0.333333 449:-1 461:-1 462:-1 465:-1 472:-1 476:-1 483:-1 496:-1 497:-1 501:-1 503:-1 513:-1 529:-1 531:-1 538:-1 539:-1 550:-1 608:-1 626:-1 642:-1 654:-1 662:-1 674:-1 678:-1 680:1 732:-1 735:-1 762:-1 763:-1 768:-1 793:-1 797:-1 807:-1 810:-1 822:-1 830:-1 836:-1 839:-1 840:-1 841:-1 842:-1 843:-1 853:-1 860:-1 861:-1 867:-1 869:-1 919:-1 920:-1 946:-1 973:-1 974:-1 985:-1 986:1 987:-1 990:-1 992:-1 993:-1 1005:-1 1009:-1 1010:-1 1015:-1 1016:-1 1017:-1 1018:-1 1019:-1 1020:-1 1021:-1 1022:-1 1026:-1 1028:-1 1033:-1 1034:-1 1050:-1 1062:-1 1072:-1 1085:-1 1105:-1 1107:-1 1112:-1 1113:-1 1117:-1 1191:-1 1215:-1 1222:-1 1238:-1 1239:-1 1241:-1 1264:-1 1281:-1 1290:-1 1321:-1 1322:-1 1323:-1 1341:-1 1343:-1 1352:-1 1356:-1 1357:1 1362:-1 1364:-1 1378:-1 1382:-1 1383:-1 1384:-1 1385:-1 1386:-1 1387:-1 1388:-1 1402:-1 1461:-1 1481:-1 1482:-1 1492:-1 1495:-1 1496:-1 1514:-1 1520:-1 1541:1 1580:-1 1594:-1 1595:-1 1596:-1 1598:-1 1622:-1 1635:-1 1644:-1 1652:-1 1655:-1 1663:-1 1671:-1 1674:-1 1676:-1 1695:-1 1700:-1 1701:-1 1707:-1 1709:-1 1738:-1 1739:-1 1742:-1 1750:-1 1755:-1 1763:-1 1781:-1 1785:-1 1786:-1 1787:1 1805:-1 1830:-1 1832:-1 1833:-1 1836:-1 1873:-1 1875:-1 1885:-1 1908:-1 1917:-1 1921:-1 1922:-1 1923:-1 1924:-1 1927:-1 1928:-1 1929:-1 1930:-1 1932:-1 1940:-1 1941:-1 1942:-1 1952:-1 1959:-1 1960:-1 1982:-1 1985:-1 1992:-1 1993:-1 1996:-1 2003:1 2005:-1 2006:-1 2007:-1 2012:-1 2019:-1 2020:-1 2022:-1 2023:-1 2025:-1 2032:-1 2050:-1 2051:-1 2065:-1 2066:-1 2098:-1 2104:-1 2114:-1 2116:-1 2148:-1 2149:-1 2173:-1 2270:-1 2286:-1 2293:-1 2294:-1 2295:-1 2296:-1 2299:-1 2307:-1 2311:-1 2313:-1 2318:-1 2324:-1 2325:-1 2330:-1 2340:-1 2341:-1 2342:-1 2351:-1 2356:-1 2357:-1 2368:-1 2370:-1 2379:-0.333333 2380:-1 2383:-1 2384:-1 2385:-1 2388:-1 2390:-1 2391:-1 2427:-1 2436:-1 2437:-1 2438:-1 2439:1 2440:-1 2471:-1 2474:-1 2479:1 2481:-1 2482:-1 2488:-1 2493:-1 2496:-1 2499:-1 2500:0.333333 2501:-1 2502:-1 2503:-1 2504:-1 2508:-1 2509:-1 2510:-1 2516:-1 2518:-1 2521:-1 2523:-1 2527:-1 2528:-1 2530:-1 2531:-1 2538:-1 2540:-1 2547:-1 2549:-1 2550:-1 2558:-1 2559:-1 2562:-1 2563:-1 2566:-1 2569:-1 2571:-1 2575:-1 2578:-1 2580:-1 2593:-1 2609:-1 2617:-1 2621:-1 2634:-1 2635:-1 2636:-1 2642:-1 2643:-1 2650:-1 2651:-1 2655:-1 2657:-1 2659:-1 2660:-1 2674:-1 2679:-1 2680:-1 2681:-1 2682:1 2686:-1 2699:-1 2700:-1 2701:-1 2702:-1 2703:-1 2713:-1 2717:-1 2719:-1 2720:1 2731:-1 2735:-1 2738:-1 2748:-1 2753:-1 2755:-1 2779:-0.5 2780:-1 2782:-1 2784:-1 2787:-1 2790:-1 2791:-1 2799:-1 2800:-1 2806:-1 2816:-1 2818:-1 2824:-1 2850:-1 2851:-1 2855:-1 2856:-1 2858:-1 2862:-1 2864:-1 2869:-1 2876:-1 2877:-1 2880:-1 2882:-1 2888:-1 2902:-1 2916:-1 2928:-1 
0.01165610127985092 6:-1 34:-1 39:-1 46:-1 49:-1 51:-1 52:-1 76:-1 78:-1 94:-1 104:-1 117:-1 121:-1 130:-1 141:-1 143:-1 146:-1 156:-1 160:-1 164:-1 169:-1 170:-1 177:-1 178:-1 179:-1 188:-1 191:1 195:-1 201:-1 203:-1 216:-1 218:-1 219:-1 228:-1 229:-1 230:-1 233:-1 243:-1 249:-1 252:-1 257:-1 261:-1 263:-1 275:-1 277:-1 298:-1 306:-1 309:1 318:1 320:-1 324:-1 339:-1 357:-1 359:-1 360:-1 361:1 364:-1 365:1 366:-1 373:-1 386:-1 387:-1 388:-1 389:-1 390:-1 392:-1 395:-1 399:-1 400:-1 407:-1 413:-1 418:-1 422:-1 423:-1 447:-1 449:-1 461:-1 462:-1 465:-1 472:-1 476:-1 477:-1 483:-1 496:-1 497:-1 501:-1 503:-1 513:-1 529:-1 531:-1 538:-1 539:-1 550:-1 608:-1 626:-1 642:-1 654:-1 662:-1 674:-1 678:-1 680:-1 732:-1 735:-1 762:-1 763:-1 768:-1 793:-1 797:-1 807:-1 810:-1 822:-1 830:-1 836:-1 839:-1 840:-1 841:-1 842:-1 843:-1 853:-1 860:-1 861:-1 867:-1 869:-1 919:-1 920:-1 946:-1 973:-1 974:-1 985:-1 986:-1 987:-1 990:-1 992:-1 993:-1 1005:-1 1009:-1 1010:-1 1015:-1 1016:-1 1017:-1 1018:-1 1019:-1 1020:-1 1021:-1 1022:-1 1026:-1 1028:-1 1033:-1 1034:-1 1050:-1 1062:-1 1072:-1 1085:-1 1105:-1 1107:-1 1112:-1 1113:-1 1117:-1 1191:1 1215:-1 1222:-1 1238:-1 1239:-1 1241:-1 1264:-1 1281:-1 1290:1 1321:-1 1322:-1 1323:-1 1341:-1 1343:-1 1352:-1 1356:-1 1357:-1 1362:-1 1364:-1 1378:-1 1382:-1 1383:-1 1384:-1 1385:-1 1386:-1 1387:-1 1388:-1 1402:-1 1461:-1 1481:-1 1482:1 1492:-1 1495:-1 1496:-1 1514:-1 1520:-1 1541:-1 1580:-1 1594:-1 1595:-1 1596:-1 1598:-1 1622:-1 1635:-1 1644:-1 1652:-1 1655:-1 1663:-1 1671:-1 1674:-1 1676:-1 1695:-1 1700:-1 1701:-1 1707:-1 1709:-1 1738:-1 1739:-1 1742:-1 1750:-1 1755:-1 1763:-1 1781:-1 1785:-1 1786:-1 1787:-1 1805:-1 1830:-1 1832:-1 1833:-1 1836:-1 1873:-1 1875:-1 1885:-1 1908:-1 1917:-1 1922:-1 1923:-1 1924:-1 1927:-1 1928:-1 1929:-1 1930:-1 1932:-1 1940:-1 1941:-1 1942:-1 1952:-1 1959:-1 1960:-1 1982:-1 1985:-1 1992:-1 1993:-1 1996:-1 2003:-1 2005:-1 2006:-1 2007:-1 2012:-1 2019:-1 2020:-1 2022:-1 2023:-1 2025:-1 2032:-1 2050:-1 2051:-1 2065:-1 2066:-1 2098:-1 2104:-1 2114:-1 2116:-1 2148:-1 2149:-1 2173:-1 2270:-1 2286:-1 2293:1 2294:-1 2295:-1 2296:-1 2299:-1 2307:-1 2311:-1 2313:-1 2318:-1 2324:-1 2325:-1 2330:-1 2340:-1 2341:-1 2342:-1 2351:-1 2356:-1 2357:-1 2368:-1 2370:-1 2379:-1 2380:-1 2383:-1 2384:-1 2385:-1 2388:-1 2390:-1 2391:-1 2427:-1 2436:-1 2437:-1 2438:-1 2439:-1 2440:-1 2471:-1 2474:-1 2479:-1 2481:-1 2482:-1 2488:-1 2493:-1 2496:-1 2499:1 2500:-1 2501:-1 2502:-1 2503:-1 2504:-1 2508:-1 2509:-0.333333 2510:-1 2516:1 2518:-1 2521:-1 2523:-1 2527:-1 2528:-1 2530:-1 2531:-1 2538:-1 2540:-1 2547:-1 2549:-1 2550:-1 2558:-1 2559:-1 2562:-1 2563:-1 2566:-1 2569:-1 2571:-1 2575:-1 2578:1 2580:-1 2593:-1 2609:-1 2617:-1 2621:-1 2634:-1 2635:-1 2636:-1 2642:-1 2643:-1 2650:-1 2651:-1 2655:-1 2657:-1 2659:-1 2660:-1 2674:-1 2679:-1 2680:-1 2681:-1 2682:-1 2686:-1 2699:-1 2700:-1 2701:-1 2702:-1 2703:-1 2713:-1 2717:-1 2719:-1 2720:-1 2731:-1 2735:-1 2738:1 2748:-1 2753:-1 2755:-1 2779:-1 2780:-1 2781:-1 2782:-1 2784:-1 2787:-1 2790:-1 2791:-1 2799:-1 2800:-1 2806:-1 2816:-1 2818:-1 2824:-1 2850:-1 2851:-1 2855:-1 2856:-1 2858:-1 2862:-1 2864:1 2869:-1 2876:-1 2877:-1 2880:-1 2882:-1 2888:1 2902:-1 2916:-1 2928:1 
0.005617460115954307 6:-1 34:-1 39:-1 46:-1 49:-1 51:-1 52:-1 76:-1 78:1 94:-1 104:-1 117:-1 121:-1 130:-1 139:-1 141:-1 143:-1 146:-1 156:-1 160:-1 164:-1 169:-1 170:-1 177:-1 178:-1 179:-1 188:-1 191:-1 195:-1 201:-1 203:-1 216:-1 218:-1 219:-1 228:-1 229:-1 230:1 233:-1 243:-1 249:-1 252:-1 257:-1 261:-1 263:-1 275:-1 277:-1 298:-1 306:-1 309:-1 318:-1 320:-1 324:-1 339:1 357:1 359:-1 360:-1 361:-1 364:-1 365:-1 366:-1 373:-1 386:1 387:-1 388:-1 389:-1 390:-1 392:-1 395:-1 399:-1 400:-1 407:-1 413:-1 418:-1 422:-1 423:-1 447:-1 449:-1 461:1 462:-1 465:-1 472:-1 476:-1 477:1 483:-1 496:-1 497:-1 501:-1 503:-1 513:-1 529:-1 531:-1 538:-1 539:-1 550:-1 608:-1 626:-1 642:-1 654:-1 662:-1 674:-1 678:-1 680:-1 732:-1 735:-1 762:-1 763:-1 768:-1 793:-1 797:-1 807:-1 810:-1 822:-1 830:-1 836:-1 839:-1 840:-1 841:-1 842:-1 843:-1 853:-1 860:-1 861:-1 867:-1 869:-1 919:-1 920:-1 946:-1 973:-1 974:-1 985:-1 986:-1 987:-1 990:-1 992:-1 993:-1 1005:-1 1009:-1 1010:-1 1015:-1 1016:-1 1017:-1 1018:-1 1019:-1 1020:-1 1021:-1 1022:-1 1026:-1 1028:-1 1033:-1 1034:-1 1050:-1 1062:-1 1072:-1 1085:-1 1105:-1 1107:-1 1112:-1 1113:-1 1117:-1 1191:-1 1215:-1 1222:-1 1238:-1 1239:-1 1241:-1 1264:-1 1290:-1 1321:-1 1322:1 1323:-1 1341:-1 1343:1 1352:-1 1356:1 1357:-1 1362:-1 1364:-1 1378:-1 1382:-1 1383:1 1384:-1 1385:-1 1386:-1 1387:-1 1388:-1 1402:1 1461:-1 1481:-1 1482:-1 1492:-1 1495:-1 1496:-1 1514:-1 1520:-1 1541:-1 1580:-1 1594:-1 1595:-1 1596:-1 1598:-1 1622:-1 1635:-1 1644:-1 1652:-1 1655:-1 1663:-1 1671:-1 1674:-1 1676:-1 1695:-1 1700:1 1701:-1 1707:-1 1709:-1 1738:-1 1739:1 1742:-1 1750:-1 1755:-1 1763:-1 1781:-1 1785:-1 1787:-1 1805:1 1830:-1 1832:-1 1833:-1 1836:-1 1873:-1 1875:-1 1908:-1 1917:-1 1921:-1 1922:-1 1923:1 1924:-1 1927:-1 1928:-1 1929:-1 1930:-1 1932:-1 1940:-1 1941:-1 1942:-1 1952:-1 1959:-1 1960:-1 1982:-1 1985:-1 1992:-1 1993:-1 1996:-1 2003:-1 2005:-1 2006:-1 2007:-1 2012:-1 2019:1 2020:-1 2022:-1 2023:-1 2025:1 2032:-1 2050:-1 2051:-1 2065:-1 2066:-1 2098:-1 2104:-1 2114:-1 2116:-1 2148:-1 2149:-1 2173:1 2270:-1 2286:1 2293:-1 2294:-1 2295:-1 2296:-1 2299:-1 2307:-1 2311:1 2313:-1 2318:-1 2324:-1 2325:-1 2330:-1 2340:-1 2341:-1 2342:-1 2351:-1 2356:-1 2357:-1 2368:-1 2370:1 2379:-1 2383:-1 2384:-1 2385:-1 2388:-1 2390:-1 2391:-1 2427:-1 2436:-1 2437:-1 2438:-1 2439:-1 2440:-1 2471:-1 2474:-1 2479:-1 2481:-1 2482:-1 2488:-1 2493:-1 2496:1 2499:-1 2500:-0.333333 2501:-1 2502:-1 2503:-1 2504:-1 2508:-1 2509:-1 2510:-1 2516:-1 2518:-1 2521:-1 2523:1 2527:-1 2528:-1 2530:-1 2531:-1 2538:-1 2540:-1 2547:-1 2549:-1 2550:-1 2558:-1 2559:-1 2562:-1 2563:-1 2566:-1 2569:-1 2571:1 2575:-1 2578:-1 2580:-1 2593:-1 2609:-1 2617:-1 2621:-1 2634:-1 2635:-1 2636:-1 2642:-1 2643:-1 2650:-1 2651:-1 2655:-1 2657:-1 2659:-1 2660:-1 2674:-1 2679:-1 2680:-1 2681:-1 2682:-1 2686:1 2699:-1 2700:-1 2701:-1 2702:-1 2703:-1 2713:-1 2717:-1 2719:-1 2720:-1 2731:-1 2735:-1 2748:-1 2753:-1 2755:-1 2779:-0.5 2780:-0.333333 2782:-1 2784:-1 2787:-1 2790:-1 2791:-1 2799:-1 2800:-1 2806:-1 2816:-1 2818:-1 2824:-1 2850:-1 2851:-1 2855:-1 2856:-1 2858:-1 2862:-1 2864:-1 2869:-1 2876:-1 2877:-1 2880:-1 2882:-1 2888:-1 2902:-1 2916:-1 2928:-1 
0.007146735590214279 6:-1 34:-1 39:-1 46:-1 49:-1 51:-1 52:-1 76:-1 78:-0.333333 94:-1 104:-1 117:-1 121:-1 130:-1 139:1 141:-1 143:-1 146:-1 156:-1 160:-1 164:-1 169:-1 170:1 177:-1 178:-1 179:-1 188:-1 191:-1 195:-1 201:-1 203:-1 216:-1 218:-1 219:-1 228:-1 229:-1 230:-1 233:-1 243:-1 249:-1 252:-1 257:-1 261:-1 263:-1 275:-1 277:-1 298:-1 306:-1 309:-1 318:-1 320:-1 324:1 339:-1 357:-1 359:-1 360:-1 361:-1 364:-1 365:-1 366:-1 373:-1 386:-1 387:-1 388:-1 389:-1 390:-1 392:-1 395:-1 399:-1 400:-1 407:-1 413:-1 418:-1 422:-1 423:-1 447:-1 449:-1 461:1 462:-1 465:-1 472:-1 476:-1 477:-1 483:-1 496:-1 497:-1 501:-1 503:-1 513:-1 529:-1 531:-1 538:-1 539:1 550:-1 608:-1 626:-1 642:-1 654:-1 662:-1 674:-1 678:-1 680:1 732:-1 735:-1 762:-1 763:-1 768:-1 793:-1 797:-1 807:-1 810:-1 822:-1 830:-1 836:-1 839:-1 840:-1 841:-1 842:-1 843:-1 853:-1 860:-1 861:1 867:-1 869:-1 920:-1 946:-1 973:-1 974:-1 985:-1 986:-1 987:-1 990:-1 992:-1 993:-1 1005:-1 1009:-1 1010:-1 1015:-1 1016:-1 1017:-1 1018:-1 1019:-1 1020:-1 1021:-1 1022:-1 1026:-1 1028:1 1033:-1 1034:-1 1050:-0.333333 1062:-1 1085:-1 1105:-1 1107:-1 1112:-1 1113:-1 1117:-1 1191:-1 1215:-1 1222:-1 1238:-1 1239:-1 1241:-1 1264:-1 1281:-1 1290:-1 1321:-1 1322:1 1323:-1 1341:-1 1343:-1 1352:-1 1356:-1 1357:-1 1362:-1 1364:-1 1378:-1 1382:-1 1383:-1 1384:-1 1385:-1 1386:-1 1387:-1 1388:1 1402:-1 1461:-1 1481:-1 1482:-1 1492:-0.333333 1495:-1 1496:-1 1514:-1 1520:-1 1541:-1 1580:-1 1594:-1 1595:-1 1596:-1 1598:-1 1622:-1 1635:-1 1644:-1 1652:-1 1655:-1 1663:-1 1671:-1 1674:-1 1676:-1 1695:-1 1700:-1 1701:-1 1707:-1 1709:-1 1738:-1 1742:-1 1750:-1 1755:-1 1763:1 1781:-1 1785:-1 1786:-1 1787:-1 1805:-1 1830:-1 1832:-1 1833:-1 1836:-1 1873:-1 1875:-1 1885:-1 1908:-1 1917:-1 1921:-1 1922:-1 1923:-1 1924:-1 1927:-1 1928:-1 1929:-1 1930:-1 1932:-1 1940:-1 1941:-1 1942:-1 1952:-1 1959:-1 1960:-1 1982:-1 1985:-1 1992:-1 1993:-1 1996:-1 2003:-1 2005:-1 2006:-1 2007:-1 2012:-1 2019:-1 2020:-1 2022:1 2023:-1 2025:-1 2032:-1 2050:-1 2051:-1 2065:-1 2066:-1 2098:-1 2104:-1 2114:1 2116:-1 2148:-1 2149:1 2173:-1 2270:-1 2286:-1 2293:-1 2294:-1 2295:-1 2296:-1 2299:-1 2307:-1 2311:-1 2313:-1 2318:-1 2325:-1 2330:-1 2340:-1 2341:-1 2342:-1 2351:-1 2356:-1 2357:-1 2368:-1 2370:-1 2379:-0.333333 2380:-1 2383:-1 2384:-1 2385:-1 2388:-1 2390:-1 2391:-1 2427:-1 2436:1 2437:-1 2438:-1 2439:-1 2440:-1 2471:-1 2474:1 2479:-1 2481:-1 2482:1 2488:-1 2493:-1 2496:1 2499:-1 2500:-0.333333 2502:-1 2503:-1 2504:-1 2508:-1 2509:-1 2510:-1 2516:-1 2518:-1 2521:-1 2523:-1 2527:-1 2528:-1 2530:-1 2531:-1 2538:-1 2540:-1 2547:-1 2549:-1 2550:1 2558:-1 2559:-1 2562:-1 2563:-1 2566:-1 2569:-1 2571:-1 2575:-1 2578:-1 2580:-1 2593:-1 2609:-1 2617:-1 2621:-1 2634:1 2635:-1 2636:-1 2642:-1 2643:-1 2651:-1 2655:-1 2657:-1 2659:-1 2660:-1 2674:-1 2679:-1 2680:-1 2681:1 2682:-1 2686:-1 2699:-1 2700:-1 2701:1 2702:-1 2703:-1 2713:-1 2717:-1 2719:-1 2720:-1 2731:-1 2735:-1 2748:-1 2753:-1 2755:-1 2779:0.5 2780:1 2781:-1 2782:-0.333333 2784:1 2787:-1 2790:1 2791:1 2799:-1 2800:-1 2806:-1 2816:-1 2824:-1 2850:-1 2851:-1 2855:-1 2856:-1 2858:0.333333 2862:-1 2864:-1 2869:-1 2876:-1 2877:-1 2880:-1 2882:1 2888:-1 2902:-1 2916:-1 2928:-1 
-0.01796179688852884 6:-1 34:-1 39:-1 46:-1 49:-1 51:-1 52:-1 76:-1 78:-1 94:-1 104:-1 117:-1 121:-1 130:-1 139:-1 141:-1 143:-1 146:-1 156:-1 160:-1 164:-1 169:-1 170:-1 177:-1 178:-1 179:-1 188:-1 191:-1 195:-1 201:-1 203:-1 216:-1 218:-1 219:-1 228:-1 229:-1 230:-1 233:-1 243:-1 249:-1 252:-1 257:-1 261:-1 263:-1 275:-1 277:-1 298:-1 306:-1 309:-1 318:-1 320:-1 324:-1 339:-1 357:-1 359:1 360:-1 361:-1 364:-1 365:-1 366:-1 373:-1 386:-1 387:-1 388:-1 389:-1 390:-1 392:-1 395:-1 399:-1 400:-1 407:-1 413:-1 418:-1 422:-1 423:-1 447:-1 449:-1 461:-1 462:-1 465:-1 472:-1 476:-1 477:-1 483:-1 496:-1 497:-1 501:-1 503:-1 513:-1 529:-1 531:-1 538:-1 539:-1 550:-1 608:-1 626:-1 642:-1 654:-1 662:-1 674:-1 678:-1 680:-1 732:-1 735:-1 762:-1 763:-1 768:-1 793:-1 797:-1 807:-1 810:-1 822:-1 830:-1 836:-1 839:-1 840:-1 841:-1 842:-1 843:-1 853:-1 860:-1 861:-1 867:-1 869:-1 919:-1 920:-1 946:-1 973:-1 974:-1 985:-1 986:-1 987:-1 990:-1 992:-1 993:-1 1005:-1 1009:-1 1010:-1 1015:-1 1016:-1 1017:-1 1018:-1 1019:-1 1020:-1 1021:-1 1022:-1 1026:-1 1028:-1 1033:-1 1034:-1 1050:-1 1062:-1 1072:-1 1085:-1 1105:-1 1107:-1 1112:-1 1113:-1 1117:-1 1191:-1 1215:-1 1222:-1 1238:-1 1239:-1 1241:1 1264:-1 1281:-1 1290:-1 1321:-1 1322:-1 1323:-1 1341:-1 1343:-1 1352:-1 1356:-1 1357:-1 1362:-1 1364:-1 1378:-1 1382:-1 1383:-1 1384:-1 1385:-1 1386:-1 1387:-1 1388:-1 1402:-1 1461:-1 1481:-1 1482:-1 1492:-1 1495:-1 1496:-1 1514:-1 1520:-1 1541:-1 1580:-1 1594:-1 1595:-1 1596:-1 1598:-1 1622:-1 1635:-1 1644:-1 1652:-1 1655:-1 1663:-1 1671:-1 1674:-1 1676:-1 1695:-1 1700:-1 1701:-1 1707:-1 1709:-1 1738:-1 1739:-1 1742:-1 1750:-1 1755:-1 1763:-1 1781:-1 1785:-1 1786:-1 1787:-1 1805:-1 1830:-1 1832:-1 1833:-1 1836:-1 1873:-1 1875:-1 1885:-1 1908:-1 1917:-1 1921:-1 1922:-1 1923:-1 1924:-1 1927:-1 1928:-1 1929:-1 1930:-1 1932:-1 1940:-1 1941:-1 1942:-1 1952:-1 1959:-1 1960:-1 1982:-1 1985:-1 1992:-1 1993:-1 1996:-1 2003:-1 2005:-1 2006:-1 2007:-1 2012:-1 2019:-1 2020:-1 2022:-1 2023:-1 2025:-1 2032:-1 2050:-1 2051:-1 2065:-1 2066:-1 2098:-1 2104:-1 2114:-1 2116:-1 2148:-1 2149:-1 2173:-1 2270:-1 2286:-1 2293:-1 2294:-1 2295:-1 2296:-1 2299:-1 2307:-1 2311:-1 2313:-1 2318:-1 2324:-1 2325:-1 2330:-1 2340:-1 2341:-1 2342:-1 2351:-1 2356:-1 2357:-1 2368:-1 2370:-1 2379:-1 2380:-1 2383:-1 2384:-1 2385:-1 2388:-1 2390:-1 2391:-1 2427:-1 2436:-1 2437:-1 2438:-1 2439:-1 2440:-1 2471:-1 2474:-1 2479:-1 2481:-1 2482:-1 2488:-1 2493:-1 2496:-1 2499:-1 2500:-1 2501:-1 2502:-1 2503:-1 2504:-1 2508:-1 2509:-1 2510:-1 2516:-1 2518:-1 2521:-1 2523:-1 2527:-1 2528:-1 2530:-1 2531:-1 2538:-1 2540:-1 2547:-1 2549:-1 2550:-1 2558:-1 2559:-1 2562:-1 2563:-1 2566:-1 2569:-1 2571:-1 2575:-1 2578:-1 2580:-1 2593:-1 2609:-1 2617:-1 2621:-1 2634:-1 2635:-1 2636:-1 2642:-1 2643:-1 2650:-1 2651:-1 2655:-1 2657:-1 2659:-1 2660:-1 2674:-1 2679:-1 2680:-1 2681:-1 2682:-1 2686:-1 2699:-1 2700:-1 2701:-1 2702:-1 2703:-1 2713:-1 2717:-1 2719:-1 2720:-1 2731:-1 2735:-1 2738:-1 2748:-1 2753:-1 2755:-1 2779:-1 2780:-0.333333 2781:-1 2782:-1 2784:-1 2787:-1 2790:-1 2791:-1 2799:-1 2800:-1 2806:-1 2816:-1 2818:-1 2824:-1 2850:-1 2851:-1 2855:-1 2856:-1 2858:-1 2862:-1 2864:-1 2869:-1 2876:-1 2877:-1 2880:-1 2882:-1 2888:-1 2902:-1 2916:-1 2928:-1 
-0.003836882730956912 6:-1 34:-1 39:-1 46:-1 49:-1 51:-1 52:-1 76:-1 78:-1 94:-1 104:-1 117:-1 121:-1 130:-1 139:-1 141:-1 143:-1 146:-1 156:-1 160:-1 164:-1 169:-1 170:-1 177:-1 178:-1 179:-1 188:-1 191:-1 195:-1 201:-1 203:-1 216:-1 218:-1 219:-1 228:-1 229:-1 230:-1 233:-1 243:-1 249:-1 252:-1 257:-1 261:-1 263:-1 275:-1 277:-1 298:-1 306:-1 309:-1 318:-1 320:-1 324:-1 339:-1 357:-1 359:-1 360:-1 361:-1 364:-1 365:-1 366:1 373:-1 386:-1 387:-1 388:-1 389:-1 390:-1 392:-1 395:-1 399:-1 400:-1 407:-1 413:-1 418:-1 422:-1 423:-1 447:-1 449:-1 461:-1 462:-1 465:-1 472:-1 476:-1 477:-1 483:-1 496:-1 497:-1 501:-1 503:-1 513:-1 529:-1 531:-1 538:-1 539:-1 550:-1 608:-1 626:-1 642:-1 654:-1 662:-1 674:-1 678:-1 680:-1 732:-1 735:-1 762:-1 763:-1 768:-1 793:-1 797:-1 807:-1 810:-1 822:-1 830:-1 836:-1 839:-1 840:-1 841:-1 842:-1 843:-1 853:-1 860:-1 861:-1 867:-1 869:-1 919:-1 920:-1 946:-1 973:-1 974:-1 985:-1 986:-1 987:-1 990:-1 992:-1 993:-1 1005:-1 1009:-1 1010:-1 1015:-1 1016:-1 1017:-1 1018:-1 1019:-1 1020:-1 1021:-1 1022:-1 1026:-1 1028:-1 1033:-1 1034:-1 1050:-1 1062:-1 1072:-1 1085:-1 1105:-1 1107:-1 1112:-1 1113:-1 1117:-1 1191:-1 1215:-1 1222:-1 1238:-1 1239:-1 1241:-1 1264:-1 1281:-1 1290:-1 1321:-1 1322:-1 1323:-1 1341:-1 1343:-1 1352:-1 1356:-1 1357:-1 1362:-1 1364:-1 1378:-1 1382:-1 1383:-1 1384:-1 1385:-1 1386:-1 1387:-1 1388:-1 1402:-1 1461:-1 1481:-1 1482:-1 1492:-1 1495:-1 1496:-1 1514:-1 1520:-1 1541:-1 1580:-1 1594:-1 1595:-1 1596:-1 1598:-1 1622:-1 1635:-1 1644:-1 1652:-1 1655:-1 1663:-1 1671:-1 1674:-1 1676:-1 1695:-1 1700:-1 1701:-1 1707:-1 1709:-1 1738:-1 1739:-1 1742:-1 1750:-1 1755:-1 1763:-1 1781:-1 1785:-1 1786:-1 1787:-1 1805:-1 1830:-1 1832:-1 1833:-1 1836:-1 1873:-1 1875:-1 1885:-1 1908:-1 1917:-1 1921:-1 1922:-1 1923:-1 1924:-1 1927:-1 1928:-1 1929:-1 1930:-1 1932:-1 1940:-1 1941:-1 1942:-1 1952:-1 1959:-1 1960:-1 1982:-1 1985:-1 1992:-1 1993:-1 1996:-1 2003:-1 2005:-1 2006:-1 2007:-1 2012:-1 2019:-1 2020:-1 2022:-1 2023:-1 2025:-1 2032:-1 2050:-1 2051:-1 2065:-1 2066:-1 2098:-1 2104:-1 2114:-1 2116:-1 2148:-1 2149:-1 2173:-1 2270:-1 2286:-1 2293:-1 2294:-1 2295:-1 2296:-1 2299:-1 2307:-1 2311:-1 2313:-1 2318:-1 2324:-1 2325:-1 2330:-1 2340:-1 2341:-1 2342:-1 2351:-1 2356:-1 2357:-1 2368:-1 2370:-1 2379:-1 2380:-1 2383:-1 2384:-1 2385:-1 2388:-1 2390:-1 2391:-1 2427:-1 2436:-1 2437:-1 2438:-1 2439:-1 2440:-1 2471:-1 2474:-1 2479:-1 2481:-1 2482:-1 2488:-1 2493:-1 2496:-1 2499:-1 2500:-1 2501:1 2502:-1 2503:-1 2504:-1 2508:-1 2509:-1 2510:-1 2516:-1 2518:-1 2521:-1 2523:-1 2527:-1 2528:-1 2530:-1 2531:-1 2538:-1 2540:-1 2547:-1 2549:-1 2550:-1 2558:-1 2559:-1 2562:-1 2563:-1 2566:-1 2569:-1 2571:-1 2575:-1 2578:-1 2580:-1 2593:-1 2609:-1 2617:-1 2621:-1 2634:-1 2635:-1 2636:-1 2642:-1 2643:-1 2650:-1 2651:-1 2655:-1 2657:-1 2659:-1 2660:-1 2674:-1 2679:-1 2680:-1 2681:-1 2682:-1 2686:-1 2699:-1 2700:-1 2701:-1 2702:-1 2703:-1 2713:-1 2717:-1 2719:-1 2720:-1 2731:-1 2735:-1 2738:-1 2748:-1 2753:-1 2755:-1 2779:-1 2780:-1 2781:-1 2782:-1 2784:-1 2787:-1 2790:-1 2791:-1 2799:-1 2800:-1 2806:-1 2816:-1 2818:-1 2824:-1 2850:-1 2851:-1 2855:-1 2856:-1 2858:-1 2862:-1 2864:-1 2869:-1 2876:-1 2877:-1 2880:-1 2882:-1 2888:-1 2902:-1 2916:-1 2928:-1 
0.0140927253428162 6:-1 34:-1 39:-1 46:-1 49:-1 51:-1 52:-1 76:-1 78:-1 94:-1 104:-1 117:-1 121:-1 130:-1 141:-1 143:-1 146:-1 156:-1 160:-1 169:1 170:-1 177:-1 178:-1 179:-1 188:-1 191:-1 195:-1 201:-1 203:-1 216:1 218:-1 219:-1 228:-1 229:-1 230:-1 233:-1 243:-1 249:-1 252:-1 257:-1 261:-1 263:-1 275:-1 277:-1 298:-1 306:-1 309:-1 318:-1 320:-1 324:-1 339:-1 357:-1 359:-1 360:-1 361:-1 364:-1 365:-1 366:1 373:-1 386:-1 387:-1 388:-1 389:-1 390:-1 392:-1 395:-1 399:-1 400:-1 407:-1 413:-1 418:-1 422:-1 423:-1 447:-1 449:-1 461:1 462:-1 465:-1 472:-1 476:-1 477:-1 483:-1 496:-1 497:-1 501:1 503:-1 513:-1 529:-1 531:-1 538:-1 539:-1 550:-1 608:-1 626:-1 642:-1 654:-1 662:-1 674:-1 678:-1 680:-1 732:-1 735:-1 762:-1 763:1 768:1 793:-1 797:-1 807:1 810:-1 822:-1 830:-1 836:-1 839:-1 840:-1 841:-1 842:-1 843:-1 853:-1 860:-1 861:-1 867:-1 869:-1 919:-1 920:-1 946:-1 973:-1 974:-1 985:-1 986:-1 987:-1 990:-1 992:-1 993:-1 1005:1 1009:-1 1010:-1 1015:-1 1016:-1 1017:-1 1018:-1 1019:-1 1020:-1 1021:-1 1022:-1 1026:-1 1028:-1 1033:-1 1034:-1 1050:-1 1062:-1 1072:-1 1085:-1 1105:-1 1107:-1 1112:-1 1113:-1 1117:-1 1191:-1 1215:-1 1222:-1 1238:-1 1239:-1 1241:-1 1264:-1 1281:-1 1290:-1 1321:-1 1322:-1 1323:-1 1341:-1 1343:-1 1352:1 1356:-1 1357:-1 1362:-1 1364:-1 1378:-1 1382:-1 1383:-1 1384:-1 1385:-1 1386:-1 1387:-1 1388:-1 1402:-1 1461:-1 1481:-1 1482:-1 1492:-1 1495:-1 1496:-1 1514:1 1520:-1 1541:-1 1580:-1 1594:-1 1595:-1 1596:-1 1598:-1 1622:-1 1635:-1 1644:-1 1652:-1 1655:-1 1663:-1 1671:-1 1674:-1 1676:-1 1695:-1 1700:-1 1701:-1 1707:-1 1709:-1 1738:-1 1739:-1 1742:-1 1750:-1 1755:-1 1763:-1 1781:-1 1785:-1 1787:-1 1805:-1 1830:1 1832:-1 1833:-1 1873:-1 1875:-1 1885:-1 1908:-1 1917:-1 1921:-1 1922:-1 1923:-1 1924:-1 1927:-1 1928:-1 1929:-1 1930:-1 1932:-1 1940:-1 1941:-1 1942:-1 1952:-1 1959:-1 1960:-1 1982:-1 1985:-1 1992:-1 1993:-1 1996:-1 2003:-1 2005:-1 2006:-1 2007:-1 2012:-1 2019:-1 2020:-1 2022:-1 2023:-1 2025:-1 2032:-1 2050:-1 2051:-1 2065:-1 2066:-1 2098:-1 2104:-1 2114:-1 2116:-1 2148:-1 2149:-1 2173:1 2270:-1 2286:-1 2293:-1 2294:-1 2295:-1 2296:-1 2299:-1 2307:-1 2311:-1 2313:-1 2318:-1 2324:1 2325:-1 2330:-1 2340:-1 2341:-1 2342:-1 2351:-1 2356:-1 2357:-1 2368:-1 2370:-1 2379:-1 2383:-1 2384:-1 2385:-1 2388:-1 2390:-1 2391:-1 2427:-1 2436:-1 2437:-1 2438:-1 2439:-1 2440:-1 2471:-1 2474:-1 2479:-1 2481:-1 2482:-1 2488:-1 2493:-1 2496:-1 2499:-1 2500:-1 2501:-1 2502:-1 2503:-1 2504:-1 2508:-1 2509:-1 2510:-1 2516:-1 2518:-1 2521:-1 2523:-1 2527:-1 2528:-1 2530:-1 2531:-1 2538:-1 2540:-1 2547:-1 2549:-1 2550:-1 2558:-1 2559:-1 2562:-1 2563:-1 2566:-1 2569:1 2571:-1 2575:-1 2578:-1 2580:-1 2593:-1 2609:-1 2617:-1 2621:1 2634:-1 2635:-1 2636:-1 2642:-1 2643:-1 2650:-1 2651:-1 2655:-1 2657:-1 2659:-1 2660:-1 2674:1 2679:-1 2680:-1 2681:-1 2682:-1 2686:-1 2699:-1 2700:-1 2701:-1 2702:-1 2703:-1 2713:-1 2717:-1 2719:-1 2720:1 2731:-1 2735:1 2738:-1 2748:-1 2753:-1 2755:-1 2779:-0.5 2780:-0.333333 2782:-1 2784:-1 2787:-1 2790:1 2791:-1 2799:-1 2800:-1 2806:-1 2816:-1 2824:-1 2850:-1 2851:-1 2855:-1 2856:-1 2858:0.333333 2862:-1 2864:-1 2869:-1 2876:1 2877:-1 2880:-1 2882:-1 2888:-1 2902:-1 2916:-1 2928:-1 
0.004299941609376234 6:-1 34:-1 39:-1 46:-1 49:1 51:-1 52:-1 76:-1 78:-0.333333 94:-1 104:-1 117:-1 121:-1 130:-1 139:-1 141:-1 143:-1 146:-1 156:-1 160:-1 169:-1 170:-1 177:-1 178:-1 179:-1 188:-1 191:-1 195:-1 201:-1 203:-1 216:-1 218:-1 219:-1 228:-1 229:-1 230:-1 233:-1 243:-1 249:-1 252:-1 257:-1 261:-1 263:-1 275:-1 277:-1 298:-1 306:1 309:-1 318:-1 320:-1 324:-1 339:-1 357:-1 359:-1 360:-1 361:-1 364:-1 365:-1 366:-1 373:-1 386:-1 387:-1 388:-1 389:-1 390:-1 392:-1 395:-1 399:-1 400:-1 407:-1 413:-1 418:-1 422:-1 423:-1 447:-1 449:-1 461:-1 462:-1 465:-1 472:-1 476:-1 477:-1 483:-1 496:-1 497:-1 501:-1 503:-1 513:-1 529:-1 531:-1 538:1 539:-1 550:-1 608:-1 626:-1 642:-1 654:-1 662:-1 674:-1 678:-1 680:-1 732:-1 735:-1 762:-1 763:-1 768:-1 793:-1 797:-1 807:-1 810:-1 822:-1 830:-1 836:-1 839:-1 840:-1 841:-1 842:-1 843:-1 853:-1 860:-1 861:-1 867:-1 869:-1 919:-1 920:-1 946:-1 973:-1 974:-1 985:-1 986:-1 987:-1 990:-1 992:-1 993:-1 1005:-1 1009:-1 1010:-1 1015:-1 1016:-1 1017:-1 1018:-1 1019:-1 1020:-1 1021:-1 1022:-1 1026:-1 1028:-1 1033:-1 1034:-1 1050:-1 1062:-1 1072:-1 1085:-1 1105:-1 1107:-1 1112:-1 1113:-1 1117:-1 1191:-1 1215:-1 1222:-1 1238:-1 1239:-1 1241:-1 1264:-1 1290:-1 1321:-1 1322:-1 1323:-1 1341:-1 1343:-1 1352:-1 1356:-1 1357:-1 1362:-1 1364:-1 1378:-1 1382:-1 1383:-1 1384:-1 1385:-1 1386:-1 1387:-1 1388:-1 1402:-1 1461:-1 1481:-1 1482:-1 1492:-1 1495:-1 1496:-1 1514:-1 1520:-1 1541:-1 1580:-1 1594:-1 1595:-1 1596:-1 1598:-1 1622:-1 1635:-1 1644:-1 1652:-1 1655:-1 1663:-1 1671:-1 1674:-1 1676:-1 1695:-1 1700:-1 1701:-1 1707:-1 1709:-1 1738:-1 1739:-1 1742:1 1750:-1 1755:-1 1763:-1 1781:-1 1785:-1 1786:-1 1787:-1 1805:-1 1830:-1 1832:-1 1833:-1 1836:-1 1873:-1 1875:-1 1885:-1 1908:1 1917:-1 1921:-1 1922:-1 1923:-1 1924:-1 1927:-1 1928:-1 1929:-1 1930:-1 1932:-1 1940:-1 1941:-1 1942:-1 1952:-1 1959:-1 1960:-1 1982:-1 1985:-1 1992:-1 1993:-1 1996:-1 2003:-1 2005:-1 2006:-1 2007:-1 2012:-1 2019:-1 2020:-1 2022:-1 2023:-1 2025:-1 2032:-1 2050:-1 2051:-1 2065:-1 2066:-1 2098:-1 2104:-1 2114:-1 2116:-1 2148:-1 2149:-1 2173:-1 2270:-1 2286:-1 2293:-1 2294:-1 2295:-1 2296:-1 2299:-1 2307:-1 2311:1 2313:-1 2318:-1 2324:-1 2325:-1 2330:-1 2340:-1 2341:-1 2342:-1 2351:-1 2356:-1 2357:-1 2368:-1 2370:-1 2379:-1 2380:-1 2383:1 2384:-1 2385:-1 2388:-1 2390:-1 2391:-1 2427:-1 2436:-1 2437:-1 2438:-1 2439:-1 2440:-1 2471:-1 2474:-1 2479:-1 2481:-1 2482:-1 2488:-1 2493:-1 2496:-1 2499:-1 2500:-1 2501:-1 2502:-1 2503:-1 2504:-1 2508:-1 2509:-1 2510:-1 2516:-1 2518:-1 2521:-1 2523:-1 2527:-1 2528:-1 2530:-1 2531:-1 2538:-1 2540:-1 2547:1 2549:-1 2550:-1 2558:-1 2559:-1 2562:-1 2563:-1 2566:-1 2569:-1 2571:-1 2575:-1 2578:-1 2580:-1 2593:-1 2609:-1 2617:-1 2621:-1 2634:-1 2635:-1 2636:-1 2642:-1 2643:-1 2650:1 2651:-1 2655:-1 2657:-1 2659:-1 2660:-1 2674:-1 2679:-1 2680:-1 2681:-1 2682:-1 2686:-1 2699:-1 2700:-1 2701:-1 2702:-1 2703:-1 2713:-1 2717:-1 2719:-1 2720:-1 2731:-1 2735:-1 2748:-1 2753:-1 2755:-1 2779:-1 2780:-1 2781:-1 2782:-1 2784:-1 2787:-1 2790:-1 2791:-1 2799:-1 2800:-1 2806:-1 2816:-1 2818:-1 2824:-1 2850:-1 2851:-1 2855:-1 2856:-1 2858:-1 2862:-1 2864:-1 2869:-1 2876:-1 2877:-1 2880:-1 2882:-1 2888:-1 2902:-1 2916:-1 2928:-1 
-0.00203126373555156 6:-1 34:-1 39:-1 46:-1 49:-1 51:-1 52:-1 76:-1 78:-1 94:-1 104:-1 117:-1 121:-1 130:-1 139:-1 141:-1 143:-1 146:-1 156:-1 160:1 164:-1 169:-1 170:-1 177:-1 178:-1 179:-1 188:-1 191:-1 195:-1 201:-1 203:-1 216:-1 218:1 219:-1 228:-1 229:-1 230:-1 233:-1 243:-1 249:-1 252:-1 257:-1 261:-1 263:-1 275:-1 277:-1 298:-1 306:-1 309:-1 318:-1 320:-1 324:-1 339:-1 357:-1 359:-1 360:-1 361:-1 364:-1 365:-1 366:-1 373:-1 386:-1 387:-1 388:-1 389:-1 390:-1 392:-1 395:-1 399:-1 400:-1 407:-1 413:-1 418:-1 422:-1 423:-1 447:-1 449:-1 461:-1 462:-1 465:-1 472:-1 476:-1 477:-1 483:-1 496:-1 497:-1 501:-1 503:-1 513:-1 529:-1 531:-1 538:-1 539:-1 550:-1 608:-1 626:-1 642:-1 654:-1 662:-1 674:-1 678:-1 680:1 732:-1 735:-1 762:-1 763:-1 768:-1 793:-1 797:-1 807:-1 810:-1 822:-1 830:-1 836:-1 839:-1 840:-1 841:-1 842:-1 843:-1 853:-1 860:-1 861:-1 867:-1 869:-1 919:-1 920:-1 946:-1 973:1 974:1 985:-1 986:-1 987:-1 990:-1 992:-1 993:-1 1005:-1 1009:-1 1010:-1 1015:-1 1016:-1 1017:-1 1018:-1 1019:-1 1020:-1 1021:-1 1022:-1 1026:-1 1028:-1 1033:-1 1034:-1 1050:1 1062:-1 1072:-1 1085:-1 1105:-1 1107:-1 1112:-1 1113:-1 1117:-1 1191:-1 1215:-1 1222:-1 1238:-1 1239:-1 1241:-1 1264:-1 1290:-1 1321:-1 1322:-1 1323:-1 1341:-1 1343:-1 1352:-1 1356:-1 1357:-1 1362:1 1364:-1 1378:-1 1382:-1 1383:-1 1384:1 1385:-1 1386:-1 1387:-1 1388:-1 1402:-1 1461:-1 1481:-1 1482:-1 1492:-1 1495:-1 1496:-1 1514:-1 1520:-1 1541:-1 1580:-1 1594:-1 1595:-1 1596:-1 1598:-1 1622:-1 1635:-1 1644:-1 1652:-1 1655:-1 1663:-1 1671:-1 1674:-1 1676:-1 1695:-1 1700:-1 1701:-1 1707:-1 1709:-1 1738:-1 1739:-1 1742:-1 1750:-1 1755:-1 1763:-1 1781:-1 1785:-1 1786:-1 1787:-1 1805:-1 1830:-1 1832:-1 1833:-1 1836:-1 1873:-1 1875:-1 1885:-1 1908:-1 1917:-1 1921:-1 1922:-1 1923:-1 1924:-1 1927:-1 1928:-1 1929:-1 1930:-1 1932:-1 1940:-1 1941:-1 1942:-1 1952:-1 1959:-1 1960:-1 1982:-1 1985:-1 1992:-1 1993:-1 1996:-1 2003:-1 2005:-1 2006:-1 2007:-1 2012:-1 2019:-1 2020:-1 2022:-1 2023:-1 2025:-1 2032:-1 2050:-1 2051:-1 2065:-1 2066:-1 2098:-1 2104:-1 2114:-1 2116:-1 2148:-1 2149:-1 2173:-1 2270:-1 2286:-1 2293:-1 2294:-1 2295:-1 2296:-1 2299:-1 2307:-1 2311:-1 2313:-1 2318:-1 2324:-1 2325:-1 2330:-1 2340:-1 2341:-1 2342:-1 2351:-1 2356:-1 2357:-1 2368:-1 2370:-1 2379:-1 2380:-1 2383:-1 2384:-1 2385:-1 2388:-1 2390:-1 2391:-1 2427:-1 2436:-1 2437:-1 2438:-1 2439:-1 2440:-1 2471:-1 2474:-1 2479:-1 2481:-1 2482:-1 2488:-1 2493:-1 2496:-1 2499:-1 2500:-1 2501:-1 2502:-1 2503:-1 2504:-1 2508:-1 2509:-1 2510:-1 2516:-1 2518:-1 2521:-1 2523:-1 2527:-1 2528:-1 2530:-1 2531:-1 2538:-1 2540:-1 2547:-1 2549:-1 2550:-1 2558:-1 2559:-1 2562:-1 2563:-1 2566:-1 2569:-1 2571:-1 2575:-1 2578:-1 2580:-1 2593:-1 2609:-1 2617:-1 2621:-1 2634:-1 2635:-1 2636:-1 2642:-1 2643:-1 2650:-1 2651:-1 2655:-1 2657:-1 2659:-1 2660:-1 2674:-1 2679:-1 2680:-1 2681:-1 2682:-1 2686:-1 2699:-1 2700:-1 2701:-1 2702:-1 2703:-1 2713:-1 2717:-1 2719:-1 2720:-1 2731:-1 2735:-1 2738:-1 2748:-1 2753:-1 2755:-1 2779:-0.5 2780:-1 2781:-1 2782:-1 2784:-1 2787:-1 2790:-1 2791:-1 2799:-1 2800:-1 2806:-1 2816:-1 2818:-1 2824:-1 2850:-1 2851:-1 2855:-1 2856:-1 2858:-1 2862:-1 2864:-1 2869:-1 2876:-1 2877:-1 2880:-1 2882:-1 2888:-1 2902:-1 2916:-1 2928:-1 
0.008584213144998883 6:1 34:-1 39:-1 46:-1 49:-1 51:-1 52:-1 76:-1 78:-0.333333 94:-1 104:-1 117:-1 121:-1 130:-1 139:-1 141:-1 143:-1 146:-1 156:-1 160:-1 164:-1 169:-1 170:-1 177:-1 178:-1 179:-1 188:-1 191:-1 195:-1 201:-1 203:-1 216:-1 218:-1 219:-1 228:-1 229:1 230:-1 233:-1 243:-1 249:-1 252:-1 257:-1 261:-1 263:-1 275:-1 277:-1 298:-1 306:-1 309:-1 318:-1 320:-1 324:-1 339:-1 357:-1 359:-1 360:-1 361:-1 364:-1 365:-1 366:-1 373:-1 386:-1 387:-1 388:-1 389:-1 390:-1 392:-1 395:-1 399:-1 400:-1 407:-1 413:-1 418:-1 422:-1 423:-1 447:-1 449:-1 461:-1 462:-1 465:-1 472:-1 476:-1 477:-1 483:-1 496:-1 497:-1 501:-1 503:-1 513:-1 529:-1 531:-1 538:-1 539:-1 550:-1 608:-1 626:-1 642:-1 654:-1 662:-1 674:-1 678:-1 680:-1 732:-1 735:-1 762:-1 763:-1 768:-1 793:-1 797:-1 807:-1 810:-1 822:-1 830:-1 836:-1 839:-1 840:-1 841:-1 842:1 843:-1 853:-1 860:-1 861:-1 867:-1 869:-1 919:-1 920:-1 946:-1 973:-1 974:-1 985:-1 986:-1 987:-1 990:-1 992:-1 993:-1 1005:-1 1009:-1 1010:-1 1015:-1 1016:-1 1017:-1 1018:-1 1019:-1 1020:-1 1021:-1 1022:-1 1026:-1 1028:-1 1033:-1 1034:-1 1050:-0.333333 1062:-1 1072:-1 1085:-1 1105:-1 1107:-1 1112:-1 1113:-1 1117:-1 1191:-1 1215:-1 1222:-1 1238:-1 1239:-1 1241:-1 1264:-1 1281:-1 1290:-1 1321:-1 1322:-1 1323:-1 1341:-1 1343:-1 1352:-1 1356:-1 1357:-1 1362:-1 1364:1 1378:-1 1382:-1 1383:-1 1384:-1 1385:-1 1386:-1 1387:-1 1388:-1 1402:-1 1461:-1 1481:-1 1482:-1 1492:-1 1495:-1 1496:-1 1514:-1 1520:-1 1541:-1 1580:-1 1594:-1 1595:-1 1596:-1 1598:-1 1622:-1 1635:-1 1644:-1 1652:-1 1655:1 1663:-1 1671:-1 1674:-1 1676:1 1695:-1 1700:-1 1701:-1 1707:-1 1709:-1 1738:-1 1739:-1 1742:-1 1750:1 1755:-1 1763:-1 1781:-1 1785:-1 1787:-1 1805:-1 1830:-1 1832:-1 1833:-1 1836:-1 1873:-1 1875:-1 1885:-1 1908:-1 1917:-1 1921:-1 1922:-1 1923:-1 1924:-1 1927:-1 1928:-1 1929:-1 1930:-1 1932:-1 1940:-1 1941:-1 1942:-1 1952:-1 1959:-1 1960:-1 1982:-1 1985:-1 1992:-1 1993:-1 1996:-1 2003:-1 2005:-1 2006:-1 2007:-1 2012:-1 2019:-1 2020:-1 2022:-1 2023:-1 2025:-1 2032:-1 2050:-1 2051:-1 2065:-1 2066:-1 2098:-1 2104:-1 2114:-1 2116:-1 2148:-1 2149:-1 2173:-1 2270:-1 2286:-1 2293:-1 2294:-1 2295:-1 2296:-1 2299:-1 2307:-1 2311:-1 2313:-1 2318:-1 2324:-1 2325:-1 2330:-1 2340:-1 2341:-1 2342:-1 2351:-1 2356:-1 2357:-1 2368:-1 2370:-1 2379:-1 2380:-1 2383:-1 2384:-1 2385:-1 2388:-1 2390:-1 2391:-1 2427:-1 2436:-1 2437:-1 2438:-1 2439:-1 2440:-1 2471:-1 2474:-1 2479:-1 2481:-1 2482:-1 2488:-1 2493:-1 2496:-1 2499:-1 2500:-1 2501:-1 2502:-1 2503:-1 2504:-1 2508:-1 2509:-1 2510:-1 2516:-1 2518:-1 2521:-1 2523:-1 2527:-1 2528:-1 2530:-1 2531:-1 2538:-1 2540:-1 2547:-1 2549:-1 2550:-1 2558:-1 2559:-1 2562:-1 2563:-1 2566:-1 2569:-1 2571:-1 2575:-1 2578:-1 2580:-1 2593:-1 2609:-1 2617:-1 2621:-1 2634:-1 2635:-1 2636:-1 2642:-1 2643:-1 2650:-1 2651:-1 2655:-1 2657:-1 2659:-1 2660:-1 2674:-1 2679:-1 2680:-1 2681:-1 2682:-1 2686:-1 2699:-1 2700:-1 2701:-1 2702:-1 2703:-1 2713:-1 2717:-1 2719:-1 2720:-1 2731:-1 2735:-1 2738:-1 2748:-1 2753:-1 2755:-1 2779:-1 2780:-1 2781:-1 2782:-1 2784:-1 2787:-1 2790:-1 2791:-1 2799:-1 2800:-1 2806:-1 2816:-1 2818:-1 2824:-1 2850:-1 2851:-1 2855:-1 2856:-1 2858:-1 2862:-1 2864:-1 2869:-1 2876:-1 2877:-1 2880:-1 2882:-1 2888:-1 2902:-1 2916:-1 2928:-1 
-0.03328960965066924 6:-1 34:-1 39:-1 46:-1 49:-1 51:-1 52:-1 76:-1 78:-0.333333 94:-1 104:-1 117:-1 121:-1 130:-1 139:-1 141:-1 143:-1 146:-0.333333 156:-1 160:-1 164:-1 169:-1 170:-1 177:-1 178:-1 179:-1 188:-1 191:-1 195:-1 201:-1 203:-1 216:-1 218:-1 219:-1 228:-1 229:-1 230:-1 233:-1 243:-1 249:-1 252:-1 257:-1 261:-1 263:-1 275:-1 277:1 298:-1 306:-1 309:-1 318:-1 320:-1 324:-1 339:-1 357:-1 359:-1 360:-1 361:-1 364:-1 365:-1 366:-1 373:-1 386:-1 387:-1 388:-1 389:-1 390:-1 392:-1 395:-1 399:-1 400:-1 407:-1 413:-1 418:-1 422:-1 423:-1 447:-1 449:-1 461:-1 462:-1 465:-1 472:-1 476:-1 477:-1 483:-1 496:-1 497:-1 501:-1 503:-1 513:-1 529:-1 531:-1 538:-1 539:-1 550:-1 608:-1 626:-1 642:-1 654:-1 662:-1 674:-1 678:-1 680:1 732:-1 735:-1 762:-1 763:-1 768:-1 793:-1 797:-1 807:-1 810:-1 822:-1 830:-1 836:-1 839:-1 840:-1 841:-1 842:-1 843:-1 853:-1 860:-1 861:-1 867:-1 869:-1 919:-1 920:-1 946:-1 973:-1 974:-1 985:-1 986:-1 987:-1 990:-1 992:-1 993:-1 1005:-1 1009:-1 1010:-1 1015:-1 1016:-1 1017:-1 1018:-1 1019:-1 1020:-1 1021:-1 1022:-1 1026:-1 1028:-1 1033:-1 1034:-1 1050:-1 1062:-1 1072:-1 1085:-1 1105:-1 1107:-1 1112:-1 1113:-1 1117:-1 1191:-1 1215:-1 1222:-1 1238:-1 1239:-1 1241:-1 1264:-1 1281:-1 1290:-1 1321:-1 1322:-1 1323:-1 1341:-1 1343:-1 1352:-1 1356:-1 1357:-1 1362:-1 1364:-1 1378:-1 1382:-1 1383:-1 1384:-1 1385:-1 1386:-1 1387:-1 1388:-1 1402:-1 1461:-1 1481:-1 1482:-1 1492:-1 1495:-1 1496:-1 1514:-1 1520:-1 1541:-1 1580:-1 1594:-1 1595:-1 1596:-1 1598:-1 1622:-1 1635:-1 1644:-1 1652:-1 1655:-1 1663:-1 1671:-1 1674:-1 1676:-1 1695:-1 1700:-1 1701:-1 1707:-1 1709:-1 1738:-1 1739:-1 1742:-1 1750:-1 1755:-1 1763:-1 1781:-1 1785:-1 1786:-1 1787:-1 1805:-1 1830:-1 1832:-1 1833:-1 1836:-1 1873:-1 1875:-1 1885:-1 1908:-1 1917:-1 1921:-1 1922:-1 1923:-1 1924:-1 1927:-1 1928:-1 1929:-1 1930:-1 1932:-1 1940:-1 1941:-1 1942:-1 1952:-1 1959:-1 1960:-1 1982:-1 1985:-1 1992:-1 1993:-1 1996:-1 2003:-1 2005:-1 2006:-1 2007:-1 2012:-1 2019:-1 2020:-1 2022:-1 2023:-1 2025:-1 2032:-1 2050:-1 2051:-1 2065:-1 2066:-1 2098:-1 2104:-1 2114:-1 2116:-1 2148:-1 2149:-1 2173:-1 2270:-1 2286:-1 2293:-1 2294:-1 2295:-1 2296:-1 2299:-1 2307:-1 2311:-1 2313:-1 2318:-1 2324:-1 2325:-1 2330:-1 2340:-1 2341:-1 2342:-1 2351:-1 2356:-1 2357:-1 2368:-1 2370:-1 2379:-1 2380:-1 2383:-1 2384:-1 2385:-1 2388:-1 2390:-1 2391:-1 2427:-1 2436:-1 2437:-1 2438:-1 2439:-1 2440:-1 2471:-1 2474:-1 2479:-1 2481:-1 2488:-1 2493:-1 2496:-1 2499:-1 2500:-1 2501:-1 2502:-1 2503:-1 2504:-1 2508:-1 2509:-1 2510:-1 2516:-1 2518:-1 2521:-1 2523:-1 2527:-1 2528:-1 2530:-1 2531:-1 2538:-1 2540:-1 2547:-1 2549:-1 2550:-1 2558:-1 2559:-1 2562:-1 2563:-1 2566:-1 2569:-1 2571:-1 2575:-1 2578:-1 2580:-1 2593:-1 2609:-1 2617:-1 2621:-1 2634:-1 2635:-1 2636:-1 2642:-1 2643:-1 2650:-1 2651:-1 2655:-1 2657:-1 2659:-1 2660:-1 2674:-1 2679:-1 2680:-1 2681:-1 2682:-1 2686:-1 2699:-1 2700:-1 2701:-1 2702:-1 2703:-1 2713:-1 2717:-1 2719:-1 2720:-1 2731:-1 2735:-1 2738:-1 2748:-1 2753:-1 2755:-1 2779:-1 2780:-1 2781:-1 2782:-1 2784:-1 2787:-1 2790:-1 2791:-1 2799:-1 2800:-1 2806:-1 2816:-1 2818:-1 2824:-1 2850:-1 2851:-1 2855:-1 2856:-1 2858:-1 2862:-1 2864:-1 2869:-1 2876:-1 2877:-1 2880:-1 2882:-1 2888:-1 2902:-1 2916:-1 2928:-1 
-1 6:-1 34:-1 39:-1 46:-1 49:-1 51:-1 52:-1 76:-1 78:-1 94:-1 104:-1 117:-1 121:-1 130:-1 139:-1 141:-1 143:-1 146:-1 156:-1 160:-1 164:-1 169:-1 170:-1 177:-1 178:-1 179:-1 188:-1 191:-1 195:-1 201:-1 203:-1 216:-1 218:-1 219:-1 228:-1 229:-1 230:-1 233:-1 243:-1 249:-1 252:-1 257:-1 261:-1 263:-1 275:-1 277:-1 298:-1 306:-1 309:-1 318:-1 320:-1 324:-1 339:-1 357:-1 359:-1 360:-1 361:-1 364:-1 365:-1 366:-1 373:-1 386:-1 387:-1 388:-1 389:-1 390:-1 392:-1 395:-1 399:-1 400:-1 407:-1 413:-1 418:-1 422:-1 423:-1 447:-1 449:-1 461:-1 462:-1 465:-1 472:-1 476:-1 477:-1 483:-1 496:-1 497:-1 501:-1 503:-1 513:-1 529:-1 531:-1 538:-1 539:-1 550:-1 608:-1 626:-1 642:-1 654:-1 662:-1 674:-1 678:-1 680:-1 732:-1 735:-1 762:-1 763:-1 768:-1 793:-1 797:-1 807:-1 810:-1 822:-1 830:-1 836:-1 839:-1 840:-1 841:-1 842:-1 843:-1 853:-1 860:-1 861:-1 867:-1 869:-1 919:-1 920:-1 946:-1 973:-1 974:-1 985:-1 986:-1 987:-1 990:-1 992:-1 993:-1 1005:-1 1009:-1 1010:-1 1015:-1 1016:-1 1017:-1 1018:-1 1019:-1 1020:-1 1021:-1 1022:-1 1026:-1 1028:-1 1033:-1 1034:-1 1050:-1 1062:-1 1072:-1 1085:-1 1105:-1 1107:-1 1112:-1 1113:-1 1117:-1 1191:-1 1215:-1 1222:-1 1238:-1 1239:-1 1241:-1 1264:-1 1281:-1 1290:-1 1321:-1 1322:-1 1323:-1 1341:-1 1343:-1 1352:-1 1356:-1 1357:-1 1362:-1 1364:-1 1378:-1 1382:-1 1383:-1 1384:-1 1385:-1 1386:-1 1387:-1 1388:-1 1402:-1 1461:-1 1481:-1 1482:-1 1492:-1 1495:-1 1496:-1 1514:-1 1520:-1 1541:-1 1580:-1 1594:-1 1595:-1 1596:-1 1598:-1 1622:-1 1635:-1 1644:-1 1652:-1 1655:-1 1663:-1 1671:-1 1674:-1 1676:-1 1695:-1 1700:-1 1701:-1 1707:-1 1709:-1 1738:-1 1739:-1 1742:-1 1750:-1 1755:-1 1763:-1 1781:-1 1785:-1 1786:-1 1787:-1 1805:-1 1830:-1 1832:-1 1833:-1 1836:-1 1873:-1 1875:-1 1885:-1 1908:-1 1917:-1 1921:-1 1922:-1 1923:-1 1924:-1 1927:-1 1928:-1 1929:-1 1930:-1 1932:-1 1940:-1 1941:-1 1942:-1 1952:-1 1959:-1 1960:-1 1982:-1 1985:-1 1992:-1 1993:-1 1996:-1 2003:-1 2005:-1 2006:-1 2007:-1 2012:-1 2019:-1 2020:-1 2022:-1 2023:-1 2025:-1 2032:-1 2050:-1 2051:-1 2065:-1 2066:-1 2098:-1 2104:-1 2114:-1 2116:-1 2148:-1 2149:-1 2173:-1 2270:-1 2286:-1 2293:-1 2294:-1 2295:-1 2296:-1 2299:-1 2307:-1 2311:-1 2313:-1 2318:-1 2324:-1 2325:-1 2330:-1 2340:-1 2341:-1 2342:-1 2351:-1 2356:-1 2357:-1 2368:-1 2370:-1 2379:-1 2380:-1 2383:-1 2384:-1 2385:-1 2388:-1 2390:-1 2391:-1 2427:-1 2436:-1 2437:-1 2438:-1 2439:-1 2440:-1 2471:-1 2474:-1 2479:-1 2481:-1 2482:-1 2488:-1 2493:-1 2496:-1 2499:-1 2500:-1 2501:-1 2502:-1 2503:-1 2504:-1 2508:-1 2509:-1 2510:-1 2516:-1 2518:-1 2521:-1 2523:-1 2527:-1 2528:-1 2530:-1 2531:-1 2538:-1 2540:-1 2547:-1 2549:-1 2550:-1 2558:-1 2559:-1 2562:-1 2563:-1 2566:-1 2569:-1 2571:-1 2575:-1 2578:-1 2580:-1 2593:-1 2609:-1 2617:-1 2621:-1 2634:-1 2635:-1 2636:-1 2642:-1 2643:-1 2650:-1 2651:-1 2655:-1 2657:-1 2659:-1 2660:-1 2674:-1 2679:-1 2680:-1 2681:-1 2682:-1 2686:-1 2699:-1 2700:-1 2701:-1 2702:-1 2703:-1 2713:-1 2717:-1 2719:-1 2720:-1 2731:-1 2735:-1 2738:-1 2748:-1 2753:-1 2755:-1 2779:-1 2780:-1 2781:-1 2782:-1 2784:-1 2787:-1 2790:-1 2791:-1 2799:-1 2800:-1 2806:-1 2816:-1 2818:-1 2824:-1 2850:-1 2851:-1 2855:-1 2856:-1 2858:-1 2862:-1 2864:-1 2869:-1 2876:-1 2877:-1 2880:-1 2882:-1 2888:-1 2902:-1 2916:-1 2928:-1 
-0.1587007393962367 6:-1 34:-1 39:-1 46:-1 49:-1 51:-1 52:-1 76:-1 78:-1 94:-1 104:-1 117:-1 121:-1 130:-1 139:-1 141:-1 143:-1 146:-1 156:-1 160:-1 164:-1 169:-1 170:-1 177:-1 178:-1 179:-1 188:-1 191:-1 195:-1 201:-1 203:-1 216:-1 218:-1 219:-1 228:-1 229:-1 230:-1 233:-1 243:-1 249:-1 252:-1 257:-1 261:-1 263:-1 275:-1 277:-1 298:-1 306:-1 309:-1 318:-1 320:-1 324:-1 339:-1 357:-1 359:-1 360:-1 361:-1 364:-1 365:-1 366:-1 373:-1 386:-1 387:-1 388:-1 389:-1 390:-1 392:-1 395:-1 399:-1 400:-1 407:-1 413:-1 418:-1 422:-1 423:-1 447:-1 449:-1 461:-1 462:-1 465:-1 472:-1 476:-1 477:-1 483:-1 496:-1 497:-1 501:-1 503:-1 513:-1 529:-1 531:-1 538:-1 539:-1 550:-1 608:-1 626:-1 642:-1 654:-1 662:-1 674:-1 678:-1 680:-1 732:-1 735:-1 762:-1 763:-1 768:-1 793:-1 797:-1 807:-1 810:-1 822:-1 830:-1 836:-1 839:-1 840:-1 841:-1 842:-1 843:-1 853:-1 860:-1 861:-1 867:-1 869:-1 919:-1 920:-1 946:-1 973:-1 974:-1 985:-1 986:-1 987:-1 990:-1 992:-1 993:-1 1005:-1 1009:-1 1010:-1 1015:-1 1016:-1 1017:-1 1018:-1 1019:-1 1020:-1 1021:-1 1022:-1 1026:-1 1028:-1 1033:-1 1034:-1 1050:-1 1062:-1 1072:-1 1085:-1 1105:-1 1107:-1 1112:-1 1113:-1 1117:-1 1191:-1 1215:-1 1222:-1 1238:-1 1239:-1 1241:-1 1264:-1 1281:-1 1290:-1 1321:-1 1322:-1 1323:-1 1341:-1 1343:-1 1352:-1 1356:-1 1357:-1 1362:-1 1364:-1 1378:-1 1382:-1 1383:-1 1384:-1 1385:-1 1386:-1 1387:-1 1388:-1 1402:-1 1461:-1 1481:-1 1482:-1 1492:-1 1495:-1 1496:-1 1514:-1 1520:-1 1541:-1 1580:-1 1594:-1 1595:-1 1596:-1 1598:-1 1622:-1 1635:-1 1644:-1 1652:-1 1655:-1 1663:-1 1671:-1 1674:-1 1676:-1 1695:-1 1700:-1 1701:-1 1707:-1 1709:-1 1738:-1 1739:-1 1742:-1 1750:-1 1755:-1 1763:-1 1781:-1 1785:-1 1786:-1 1787:-1 1805:-1 1830:-1 1832:-1 1833:-1 1836:-1 1873:-1 1875:-1 1885:-1 1908:-1 1917:-1 1921:-1 1922:-1 1923:-1 1924:-1 1927:-1 1928:-1 1929:-1 1930:-1 1932:-1 1940:-1 1941:-1 1942:-1 1952:-1 1959:-1 1960:-1 1982:-1 1985:-1 1992:-1 1993:-1 1996:-1 2003:-1 2005:-1 2006:-1 2007:-1 2012:-1 2019:-1 2020:-1 2022:-1 2023:-1 2025:-1 2032:-1 2050:-1 2051:-1 2065:-1 2066:-1 2098:-1 2104:-1 2114:-1 2116:-1 2148:-1 2149:-1 2173:-1 2270:-1 2286:-1 2293:-1 2294:-1 2295:-1 2296:-1 2299:-1 2307:-1 2311:-1 2313:-1 2318:-1 2325:-1 2330:-1 2340:-1 2341:-1 2342:-1 2351:-1 2356:-1 2357:-1 2368:-1 2370:-1 2379:-1 2380:-1 2383:-1 2384:-1 2385:-1 2388:-1 2390:-1 2391:-1 2427:-1 2436:-1 2437:-1 2438:-1 2439:-1 2440:-1 2471:-1 2474:-1 2479:-1 2481:-1 2482:-1 2488:-1 2493:-1 2496:-1 2499:-1 2500:-1 2501:-1 2502:-1 2503:-1 2504:-1 2508:-1 2509:-1 2510:-1 2516:-1 2518:-1 2521:-1 2523:-1 2527:-1 2528:-1 2530:-1 2531:-1 2538:-1 2540:-1 2547:-1 2549:-1 2550:-1 2558:-1 2559:-1 2562:-1 2563:-1 2566:-1 2569:-1 2571:-1 2575:-1 2578:-1 2580:-1 2593:-1 2609:-1 2617:-1 2621:-1 2634:-1 2635:-1 2636:-1 2642:-1 2643:-1 2650:-1 2651:-1 2655:-1 2657:-1 2659:-1 2660:-1 2674:-1 2679:-1 2680:-1 2681:-1 2682:-1 2686:-1 2699:-1 2700:-1 2701:-1 2702:-1 2703:-1 2713:-1 2717:-1 2719:-1 2720:-1 2731:-1 2735:-1 2738:-1 2748:-1 2753:-1 2755:-1 2779:-1 2780:-1 2781:-1 2782:-1 2784:-1 2787:-1 2790:-1 2791:-1 2799:-1 2800:-1 2806:-1 2816:-1 2818:-1 2824:-1 2850:-1 2851:-1 2855:-1 2856:-1 2858:-1 2862:-1 2864:-1 2869:-1 2876:-1 2877:-1 2880:-1 2882:-1 2888:-1 2902:-1 2916:-1 2928:-1 
-0.0001510660502980623 6:-1 34:-1 39:-1 46:-1 49:-1 51:-1 52:-1 76:-1 78:-0.333333 94:-1 104:-1 117:-1 121:-1 130:-1 139:-1 141:-1 143:-1 146:-1 156:1 160:-1 164:-1 169:-1 170:-1 177:-1 178:-1 179:-1 188:-1 191:-1 195:-1 201:-1 203:-1 216:-1 218:-1 219:-1 228:-1 229:-1 230:-1 233:-1 243:-1 249:-1 252:-1 257:-1 261:-1 263:-1 275:-1 277:-1 298:-1 306:-1 309:-1 318:-1 320:-1 324:-1 339:-1 357:-1 359:-1 360:-1 361:-1 364:-1 365:-1 366:-1 373:-1 386:-1 387:-1 388:-1 389:-1 390:-1 392:-1 395:-1 399:-1 400:-1 407:-1 413:-1 418:-1 422:-1 423:-1 447:-1 449:-1 461:-1 462:-1 465:-1 472:-1 476:-1 477:-1 483:-1 496:-1 497:1 501:-1 503:-1 513:-1 529:1 531:-1 538:-1 539:-1 550:-1 608:-1 626:-1 642:-1 654:-1 662:-1 674:-1 678:-1 680:-1 732:-1 735:1 762:-1 763:-1 768:-1 793:-1 797:-1 807:-1 810:-1 822:-1 830:-1 836:-1 839:-1 840:-1 841:-1 842:-1 843:-1 853:-1 860:-1 861:-1 867:-1 869:-1 919:-1 920:-1 946:-1 973:-1 974:-1 985:-1 986:-1 987:-1 990:-1 992:-1 993:-1 1005:-1 1009:-1 1010:-1 1015:-1 1016:-1 1017:-1 1018:-1 1019:-1 1020:-1 1021:-1 1022:-1 1026:-1 1028:-1 1033:-1 1034:-1 1050:-0.333333 1062:-1 1072:-1 1085:-1 1105:-1 1107:-1 1112:-1 1113:-1 1117:-1 1191:-1 1215:-1 1222:-1 1238:-1 1239:-1 1241:-1 1264:-1 1281:-1 1290:-1 1321:-1 1322:-1 1323:-1 1341:-1 1343:-1 1352:-1 1356:-1 1357:-1 1362:-1 1364:-1 1378:-1 1382:-1 1383:-1 1384:-1 1385:-1 1386:-1 1387:-1 1388:-1 1402:-1 1461:-1 1481:-1 1482:-1 1492:-1 1495:-1 1496:-1 1514:-1 1520:-1 1541:-1 1580:-1 1594:-1 1595:-1 1596:-1 1598:-1 1622:-1 1635:-1 1644:-1 1652:-1 1655:-1 1663:-1 1671:-1 1674:-1 1676:-1 1695:-1 1700:-1 1701:-1 1707:-1 1709:-1 1738:-1 1739:-1 1742:-1 1750:-1 1755:-1 1763:-1 1781:-1 1785:-1 1786:-1 1787:-1 1805:-1 1830:-1 1832:-1 1833:-1 1836:-1 1873:-1 1875:-1 1885:-1 1908:-1 1917:-1 1921:-1 1922:-1 1923:-1 1924:-1 1927:-1 1928:-1 1929:-1 1930:-1 1932:-1 1940:-1 1941:-1 1942:-1 1952:-1 1959:-1 1960:-1 1982:-1 1985:-1 1992:-1 1993:-1 1996:-1 2003:-1 2005:-1 2006:-1 2007:-1 2012:-1 2019:-1 2020:-1 2022:-1 2023:-1 2025:-1 2032:-1 2050:-1 2051:-1 2065:-1 2066:-1 2098:-1 2104:-1 2114:-1 2116:-1 2148:-1 2149:-1 2173:-1 2270:-1 2286:-1 2293:-1 2294:-1 2295:-1 2296:-1 2299:-1 2307:-1 2311:-1 2313:-1 2318:-1 2324:-1 2325:-1 2330:-1 2340:-1 2341:-1 2342:-1 2351:-1 2356:-1 2357:-1 2368:-1 2370:-1 2379:-1 2380:-1 2383:-1 2384:-1 2385:-1 2388:-1 2390:-1 2391:-1 2427:-1 2436:-1 2437:-1 2438:-1 2439:-1 2440:-1 2471:-1 2474:-1 2479:-1 2481:-1 2482:-1 2488:-1 2493:-1 2496:-1 2499:-1 2500:-0.333333 2502:-1 2503:-1 2504:-1 2508:-1 2509:-1 2510:-1 2516:-1 2518:-1 2521:-1 2523:-1 2527:-1 2528:-1 2530:-1 2531:-1 2538:-1 2540:-1 2547:-1 2549:-1 2550:-1 2558:-1 2559:-1 2562:-1 2563:-1 2566:-1 2569:-1 2571:-1 2575:-1 2578:-1 2580:-1 2593:-1 2609:-1 2617:-1 2621:-1 2634:-1 2635:-1 2636:-1 2642:-1 2643:-1 2650:-1 2651:-1 2655:-1 2657:-1 2659:-1 2660:-1 2674:-1 2679:1 2680:-1 2681:-1 2682:-1 2686:-1 2699:-1 2700:-1 2701:-1 2702:-1 2703:-1 2713:-1 2717:-1 2719:-1 2720:-1 2731:-1 2735:-1 2738:-1 2748:-1 2753:-1 2755:-1 2779:-1 2780:-1 2781:-1 2782:-1 2784:-1 2787:1 2790:-1 2791:-1 2799:1 2800:-1 2806:-1 2816:-1 2818:-1 2824:-1 2850:-1 2851:-1 2855:-1 2856:-1 2858:-1 2862:-1 2864:-1 2869:-1 2876:-1 2877:-1 2880:1 2882:-1 2888:-1 2902:-1 2916:-1 2928:-1 
0.00202096084997793 6:-1 34:-1 39:-1 46:1 49:-1 51:-1 52:-1 76:-1 78:-0.333333 94:-1 104:-1 117:-1 121:1 130:-1 139:-1 141:-1 143:-1 146:-0.333333 156:-1 160:-1 164:-1 169:-1 170:-1 177:-1 178:-1 179:-1 188:-1 191:-1 195:-1 201:-1 203:-1 216:-1 218:-1 219:-1 228:-1 229:-1 230:-1 233:-1 249:-1 252:-1 257:-1 261:-1 263:-1 275:-1 277:-1 298:-1 306:-1 309:-1 318:-1 320:-1 324:-1 339:-1 357:-1 359:-1 360:-1 361:-1 364:-1 365:-1 366:-1 373:-1 386:-1 387:-1 388:-1 389:-1 390:-1 392:-1 395:-1 399:-1 400:-1 407:-1 413:-1 418:-1 422:-1 423:-1 447:-1 449:-1 461:-1 462:-1 465:-1 472:-1 476:-1 477:-1 483:-1 496:-1 497:-1 501:-1 503:-1 513:-1 529:-1 531:-1 538:-1 539:-1 550:-1 608:-1 626:-1 642:1 654:-1 662:-1 674:-1 678:-1 680:-1 732:-1 735:-1 762:-1 763:-1 768:-1 793:-1 797:-1 807:-1 810:-1 822:-1 830:-1 836:-1 839:-1 840:-1 841:-1 842:-1 843:-1 853:-1 860:-1 861:-1 867:-1 869:-1 919:-1 920:-1 946:-1 973:-1 974:-1 985:-1 986:-1 987:-1 990:-1 992:-1 993:-1 1005:-1 1009:-1 1010:-1 1015:-1 1016:-1 1017:-1 1018:-1 1019:-1 1020:-1 1021:-1 1022:-1 1026:-1 1028:-1 1033:-1 1034:-1 1050:-1 1062:-1 1072:-1 1085:-1 1105:-1 1107:-1 1112:-1 1113:-1 1117:-1 1191:-1 1215:-1 1222:1 1238:-1 1239:-1 1241:-1 1264:-1 1281:1 1290:-1 1321:-1 1322:-1 1323:-1 1341:-1 1343:-1 1352:-1 1356:-1 1357:-1 1362:-1 1364:-1 1378:-1 1382:-1 1383:-1 1384:-1 1385:-1 1386:-1 1387:-1 1388:-1 1402:-1 1461:-1 1481:-1 1482:1 1492:-1 1495:-1 1496:-1 1514:-1 1520:-1 1541:-1 1580:-1 1594:-1 1595:-1 1596:-1 1598:-1 1622:-1 1635:-1 1644:-1 1652:-1 1655:-1 1663:1 1671:-1 1674:1 1676:-1 1695:-1 1700:-1 1701:-1 1707:-1 1709:-1 1738:-1 1742:-1 1750:-1 1755:-1 1763:-1 1781:-1 1785:-1 1786:-1 1787:-1 1805:-1 1830:1 1832:-1 1833:1 1836:-1 1873:-1 1875:-1 1885:-1 1908:-1 1917:-1 1921:-1 1922:-1 1923:-1 1924:-1 1927:-1 1928:-1 1929:-1 1930:-1 1932:1 1940:-1 1941:-1 1942:-1 1952:-1 1959:-1 1960:-1 1982:-1 1985:-1 1992:-1 1993:-1 1996:-1 2003:-1 2005:-1 2006:-1 2007:-1 2012:-1 2019:-1 2020:-1 2022:-1 2023:-1 2025:-1 2032:-1 2050:-1 2051:-1 2065:-1 2066:-1 2098:-1 2104:-1 2114:-1 2116:-1 2148:-1 2149:-1 2173:-1 2270:-1 2286:-1 2293:-1 2294:-1 2295:1 2296:-1 2299:-1 2307:-1 2311:-1 2313:-1 2318:-1 2324:-1 2325:-1 2330:-1 2340:-1 2341:-1 2342:-1 2351:-1 2356:-1 2357:-1 2368:-1 2370:-1 2379:-1 2380:-1 2383:-1 2384:-1 2385:-1 2388:1 2390:-1 2391:-1 2427:-1 2436:-1 2437:-1 2438:-1 2439:1 2440:-1 2471:-1 2474:-1 2479:-1 2481:-1 2482:-1 2488:-1 2493:-1 2496:-1 2499:-1 2500:-0.333333 2501:-1 2502:-1 2503:-1 2504:-1 2508:-1 2509:-0.333333 2510:-1 2516:-1 2518:-1 2521:-1 2523:-1 2527:-1 2528:-1 2530:1 2531:1 2538:-1 2540:-1 2547:-1 2549:-1 2550:-1 2558:-1 2559:-1 2562:-1 2563:-1 2566:-1 2569:-1 2571:-1 2575:-1 2578:-1 2580:-1 2593:-1 2609:-1 2617:-1 2621:-1 2634:-1 2635:-1 2636:-1 2642:-1 2643:-1 2651:-1 2655:-1 2657:-1 2659:-1 2660:-1 2674:-1 2679:-1 2680:-1 2681:-1 2682:-1 2686:-1 2699:-1 2700:-1 2701:-1 2702:1 2703:-1 2713:-1 2717:-1 2719:-1 2720:1 2731:-1 2735:-1 2738:-1 2748:-1 2753:-1 2755:-1 2779:-1 2780:-1 2781:1 2782:-1 2784:-1 2787:-1 2790:-1 2791:-1 2799:-1 2800:-1 2806:-1 2816:-1 2818:-1 2824:-1 2850:-1 2851:-1 2855:-1 2856:-1 2858:-1 2862:-1 2864:-1 2869:-1 2876:-1 2877:-1 2880:-1 2882:-1 2888:-1 2902:-1 2916:-1 2928:-1 
0.02965905113245786 6:-1 34:-1 39:-1 46:-1 49:-1 51:-1 52:-1 76:-1 78:-1 94:-1 104:-1 117:-1 121:-1 130:-1 139:-1 141:-1 143:-1 146:-1 156:-1 160:-1 164:-1 169:-1 170:-1 177:-1 178:-1 179:-1 188:-1 191:-1 195:-1 201:-1 203:-1 216:-1 218:-1 219:-1 228:-1 229:-1 230:-1 233:-1 243:-1 249:-1 252:-1 257:-1 261:-1 263:1 275:-1 277:-1 298:-1 306:-1 309:-1 318:-1 320:-1 324:-1 339:-1 357:-1 359:-1 360:-1 361:-1 364:-1 365:-1 366:-1 373:1 386:-1 387:-1 388:-1 389:-1 390:-1 395:-1 399:-1 400:-1 407:-1 413:-1 418:-1 422:-1 423:-1 447:-1 449:-1 461:-1 462:-1 465:-1 472:-1 476:-1 477:-1 483:-1 496:-1 497:-1 501:1 503:-1 513:-1 529:-1 531:-1 538:-1 539:-1 550:-1 608:-1 626:-1 642:-1 654:-1 662:-1 674:1 678:-1 680:-1 732:-1 735:-1 762:-1 763:-1 768:-1 793:-1 797:-1 807:-1 810:-1 822:-1 830:-1 836:-1 839:-1 840:-1 841:-1 842:-1 843:-1 853:-1 860:-1 861:-1 867:-1 869:-1 919:-1 920:-1 946:-1 973:-1 974:-1 985:-1 986:-1 987:-1 990:-1 992:-1 993:-1 1005:-1 1009:-1 1010:-1 1015:-1 1016:-1 1017:-1 1018:-1 1019:-1 1020:-1 1021:-1 1022:-1 1026:-1 1028:-1 1033:-1 1034:-1 1050:-1 1062:-1 1072:-1 1085:-1 1105:-1 1107:-1 1112:-1 1113:-1 1117:-1 1191:-1 1215:-1 1222:-1 1238:-1 1239:-1 1241:-1 1264:-1 1281:-1 1290:-1 1321:-1 1322:-1 1323:-1 1341:-1 1343:-1 1352:-1 1356:-1 1357:-1 1362:-1 1364:-1 1378:-1 1382:-1 1383:-1 1384:-1 1385:-1 1386:-1 1387:-1 1388:-1 1402:-1 1461:-1 1481:-1 1482:-1 1492:-1 1495:-1 1496:-1 1514:-1 1520:1 1541:-1 1580:-1 1594:-1 1595:-1 1596:-1 1598:-1 1622:-1 1635:-1 1644:-1 1652:-1 1655:-1 1663:-1 1671:-1 1674:1 1676:-1 1695:-1 1700:-1 1701:-1 1707:-1 1709:-1 1738:-1 1742:-1 1750:-1 1755:-1 1763:-1 1781:-0.6 1785:-1 1786:1 1787:-1 1805:-1 1830:-1 1832:-1 1833:-1 1836:-1 1873:-1 1875:-1 1885:-1 1908:-1 1917:-1 1921:1 1922:-1 1923:-1 1924:-1 1927:-1 1928:-1 1929:1 1930:-1 1932:-1 1940:-1 1941:-1 1942:-1 1952:-1 1959:-1 1960:-1 1982:-1 1985:-1 1992:-1 1993:-1 1996:-1 2003:-1 2005:-1 2006:-1 2007:-1 2012:-1 2019:-1 2020:-1 2022:-1 2023:-1 2025:-1 2032:-1 2050:-1 2051:-1 2065:-1 2066:-1 2098:-1 2104:-1 2114:-1 2116:-1 2148:-1 2149:-1 2173:-1 2270:-1 2286:-1 2293:-1 2294:-1 2295:-1 2296:-1 2299:-1 2307:-1 2311:-1 2313:-1 2318:-1 2324:-1 2325:-1 2330:-1 2340:-1 2341:-1 2342:-1 2351:1 2356:-1 2357:1 2368:-1 2370:-1 2379:0.333333 2383:-1 2384:-1 2385:-1 2388:-1 2390:-1 2391:1 2427:-1 2436:-1 2437:-1 2438:-1 2439:1 2440:-1 2471:-1 2474:-1 2479:-1 2481:-1 2482:-1 2488:-1 2493:-1 2496:-1 2499:-1 2500:-1 2502:-1 2503:-1 2504:-1 2508:-1 2509:-0.333333 2510:-1 2516:-1 2518:-1 2521:-1 2523:-1 2527:-1 2528:-1 2530:-1 2531:-1 2538:-1 2540:-1 2547:-1 2549:-1 2550:-1 2558:-1 2559:-1 2562:-1 2563:-1 2566:-1 2569:-1 2571:-1 2575:-1 2578:-1 2580:-1 2593:-1 2609:-1 2617:-1 2621:-1 2634:-1 2635:-1 2636:-1 2642:-1 2643:-1 2650:-1 2651:-1 2655:-1 2657:-1 2659:-1 2660:-1 2674:-1 2679:-1 2680:-1 2681:-1 2682:-1 2686:-1 2699:-1 2700:-1 2701:-1 2702:-1 2703:1 2713:-1 2717:-1 2719:1 2720:-1 2731:-1 2735:-1 2738:-1 2748:-1 2753:-1 2755:-1 2779:-1 2780:-1 2781:-1 2782:-1 2784:-1 2787:-1 2790:1 2791:-1 2799:-1 2800:-1 2806:-1 2816:-1 2818:-1 2824:-1 2850:-1 2851:-1 2855:-1 2856:-1 2858:-1 2862:-1 2864:-1 2869:-1 2876:-1 2877:-1 2880:-1 2882:-1 2888:-1 2902:-1 2916:-1 2928:-1 
0.001321693048220474 6:-1 34:-1 39:-1 46:-1 49:-1 51:-1 52:-1 76:-1 78:-0.333333 94:-1 104:-1 117:-1 121:-1 130:-1 139:-1 141:-1 143:-1 146:-1 156:-1 160:-1 164:-1 169:-1 170:-1 177:-1 178:-1 179:-1 188:-1 191:-1 195:-1 201:-1 203:-1 216:-1 218:-1 219:-1 228:-1 229:-1 230:-1 233:-1 243:-1 249:-1 252:-1 257:-1 261:-1 263:-1 277:-1 298:-1 306:-1 309:-1 318:-1 320:-1 324:-1 339:-1 357:-1 359:-1 360:-1 361:-1 364:-1 365:-1 366:-1 373:-1 386:-1 387:-1 388:-1 389:-1 390:-1 392:-1 395:-1 399:-1 400:-1 407:-1 413:-1 418:-1 422:-1 423:-1 447:-1 449:-1 461:-1 462:1 465:-1 472:-1 476:-1 477:-1 483:-1 496:-1 497:-1 501:-1 503:-1 513:-1 529:-1 531:-1 538:-1 539:-1 550:-1 608:-1 626:-1 642:-1 654:-1 662:-1 674:-1 678:-1 680:-1 732:-1 735:-1 762:-1 763:-1 768:-1 793:-1 797:-1 807:-1 810:-1 822:-1 830:-1 836:-1 839:-1 840:-1 841:1 842:-1 843:-1 853:-1 860:-1 861:-1 867:-1 869:-1 919:-1 920:-1 946:-1 973:-1 974:-1 985:-1 986:-1 987:-1 990:-1 992:-1 993:-1 1005:-1 1009:-1 1010:-1 1015:-1 1016:1 1017:-1 1018:-1 1019:-1 1020:-1 1021:-1 1022:-1 1026:-1 1028:-1 1033:-1 1034:-1 1050:-1 1062:-1 1072:-1 1085:1 1105:-1 1107:-1 1112:-1 1113:-1 1117:-1 1191:-1 1215:-1 1222:-1 1238:-1 1239:-1 1241:-1 1264:-1 1281:-1 1290:-1 1321:-1 1322:-1 1323:-1 1341:-1 1343:-1 1352:-1 1356:-1 1357:-1 1362:-1 1364:-1 1378:-1 1382:-1 1383:-1 1384:-1 1385:-1 1386:-1 1387:-1 1388:-1 1402:-1 1461:-1 1481:-1 1482:-1 1492:-1 1495:-1 1496:1 1514:-1 1520:-1 1541:-1 1580:-1 1594:-1 1595:-1 1596:-1 1598:-1 1622:-1 1635:-1 1644:-1 1652:-1 1655:-1 1663:-1 1671:-1 1674:-1 1676:-1 1695:-1 1700:-1 1701:-1 1707:-1 1709:-1 1738:-1 1739:-1 1742:-1 1750:-1 1755:-1 1763:-1 1781:-1 1785:1 1786:-1 1787:-1 1805:-1 1830:-1 1832:-1 1833:-1 1836:-1 1873:-1 1875:-1 1885:-1 1908:-1 1917:-1 1921:-1 1922:-1 1923:-1 1924:-1 1927:-1 1928:-1 1929:-1 1930:-1 1932:-1 1940:-1 1941:-1 1942:-1 1952:-1 1959:-1 1960:-1 1982:-1 1985:-1 1992:-1 1993:-1 1996:-1 2003:-1 2005:-1 2006:-1 2007:-1 2012:-1 2019:-1 2020:-1 2022:-1 2023:-1 2025:-1 2032:-1 2050:-1 2051:-1 2065:-1 2066:-1 2098:-1 2104:-1 2114:-1 2116:-1 2148:-1 2149:-1 2173:-1 2270:1 2286:-1 2293:-1 2294:-1 2295:-1 2296:-1 2299:-1 2307:-1 2311:-1 2313:1 2318:1 2324:-1 2325:-1 2330:-1 2340:-1 2341:-1 2342:-1 2351:-1 2356:-1 2357:-1 2368:-1 2370:-1 2379:-1 2380:-1 2383:-1 2384:-1 2385:-1 2388:-1 2390:-1 2391:-1 2427:-1 2436:-1 2437:-1 2438:-1 2439:-1 2440:-1 2471:-1 2474:-1 2479:-1 2481:-1 2482:-1 2493:-1 2496:-1 2499:-1 2500:0.333333 2502:1 2503:-1 2504:-1 2508:-1 2509:-1 2510:-1 2516:-1 2518:-1 2521:-1 2523:-1 2527:-1 2528:-1 2530:-1 2531:-1 2538:-1 2540:-1 2547:-1 2549:-1 2550:-1 2558:-1 2559:-1 2562:-1 2563:-1 2566:-1 2569:-1 2571:-1 2575:-1 2578:-1 2580:-1 2593:-1 2609:-1 2617:-1 2621:-1 2634:-1 2635:-1 2636:-1 2642:-1 2643:-1 2650:-1 2651:-1 2655:-1 2657:-1 2659:-1 2660:1 2674:-1 2679:-1 2680:-1 2681:-1 2682:-1 2686:-1 2699:-1 2700:-1 2701:-1 2702:-1 2703:-1 2713:-1 2717:-1 2719:-1 2720:-1 2731:-1 2735:-1 2738:-1 2748:-1 2753:-1 2755:-1 2779:-1 2780:-1 2781:-1 2782:1 2784:-1 2787:-1 2790:-1 2791:-1 2799:-1 2800:-1 2806:-1 2816:-1 2824:-1 2850:-1 2851:-1 2855:-1 2856:-1 2858:-0.333333 2862:-1 2864:-1 2869:-1 2876:-1 2877:-1 2880:-1 2882:-1 2888:-1 2902:-1 2916:-1 2928:-1 
-0.007673697647291573 6:-1 34:-1 39:-1 46:-1 49:-1 51:-1 52:-1 76:-1 78:-1 94:-1 104:-1 117:-1 121:-1 130:-1 139:-1 141:-1 143:-1 146:0.333333 156:-1 160:-1 164:-1 169:-1 170:1 177:-1 178:-1 179:-1 188:-1 191:-1 195:-1 201:-1 203:-1 216:-1 218:-1 219:-1 228:-1 229:-1 230:-1 233:-1 243:-1 249:-1 252:-1 257:-1 261:-1 263:-1 275:-1 277:-1 298:-1 306:-1 309:-1 318:-1 320:-1 324:-1 339:-1 357:-1 359:-1 360:-1 361:-1 364:-1 365:-1 366:-1 373:-1 386:-1 387:-1 388:-0.333333 389:-1 390:-1 392:-1 395:-1 399:-1 400:-1 407:-1 413:-1 418:-1 422:-1 423:-1 447:-1 449:-1 461:-1 462:-1 465:-1 472:-1 476:-1 477:-1 483:-1 496:-1 497:-1 501:-1 503:-1 513:-1 529:-1 531:-1 538:-1 539:-1 550:-1 608:-1 626:-1 642:-1 654:-1 662:-1 674:-1 678:-1 680:-1 732:-1 735:-1 762:-1 763:-1 768:-1 793:-1 797:-1 807:-1 810:-1 822:-1 830:-1 836:-1 839:-1 840:-1 841:-1 842:-1 843:-1 853:-1 860:-1 861:-1 867:-1 869:-1 919:-1 920:-1 946:-1 973:-1 974:-1 985:-1 986:-1 987:-1 990:-1 992:-1 993:-1 1005:-1 1009:-1 1010:-1 1015:-1 1016:-1 1017:-1 1018:-1 1019:-1 1020:-1 1021:-1 1022:1 1026:-1 1028:-1 1033:-1 1034:-1 1050:-1 1062:-1 1072:-1 1085:-1 1105:-1 1107:-1 1112:-1 1113:-1 1117:-1 1191:-1 1215:-1 1222:-1 1238:-1 1239:-1 1241:-1 1264:-1 1281:-1 1290:-1 1321:-1 1322:-1 1323:-1 1341:-1 1343:-1 1352:-1 1356:-1 1357:-1 1362:-1 1364:-1 1378:-1 1382:-1 1383:-1 1384:-1 1385:-1 1386:-1 1387:-1 1388:-1 1402:-1 1461:-1 1481:-1 1482:-1 1492:-1 1495:-1 1496:-1 1514:-1 1520:-1 1541:-1 1580:-1 1594:-1 1595:-1 1596:-1 1598:-1 1622:-1 1635:-1 1644:-1 1652:-1 1655:-1 1663:-1 1671:-1 1674:-1 1676:-1 1695:-1 1700:-1 1701:-1 1707:-1 1709:-1 1738:-1 1739:-1 1742:-1 1750:-1 1755:-1 1763:-1 1781:-1 1785:-1 1786:-1 1787:-1 1805:-1 1830:-1 1832:-1 1833:-1 1836:-1 1873:-1 1875:-1 1885:-1 1908:-1 1917:-1 1921:-1 1922:-1 1923:-1 1924:-1 1927:-1 1928:-1 1929:-1 1930:-1 1932:-1 1940:-1 1941:-1 1942:-1 1952:-1 1959:-1 1960:-1 1982:-1 1985:1 1992:-1 1993:-1 1996:-1 2003:-1 2005:-1 2006:-1 2007:-1 2012:-1 2019:-1 2020:-1 2022:-1 2023:-1 2025:-1 2032:-1 2050:-1 2051:-1 2065:-1 2066:-1 2098:-1 2104:-1 2114:-1 2116:-1 2148:-1 2149:-1 2173:-1 2270:-1 2286:-1 2293:-1 2294:-1 2295:-1 2296:-1 2299:-1 2307:-1 2311:-1 2313:-1 2318:-1 2324:-1 2325:-1 2330:-1 2340:-1 2341:-1 2342:-1 2351:-1 2356:-1 2357:-1 2368:-1 2370:-1 2379:-0.333333 2380:-1 2383:-1 2384:-1 2385:-1 2388:-1 2390:-1 2391:-1 2427:-1 2436:-1 2437:-1 2438:-1 2439:-1 2440:-1 2471:-1 2474:-1 2479:-1 2481:-1 2482:-1 2488:-1 2493:-1 2496:-1 2499:-1 2500:-1 2501:-1 2502:-1 2503:-1 2504:-1 2508:-1 2509:-1 2510:-1 2516:-1 2518:1 2521:-1 2523:-1 2527:-1 2528:-1 2530:-1 2531:-1 2538:-1 2540:-1 2547:-1 2549:-1 2550:-1 2558:-1 2559:-1 2562:-1 2563:-1 2566:-1 2569:-1 2571:-1 2575:-1 2578:-1 2580:-1 2593:-1 2609:-1 2617:-1 2621:-1 2634:-1 2635:-1 2636:-1 2642:-1 2643:-1 2650:-1 2651:-1 2655:-1 2657:-1 2659:-1 2660:-1 2674:-1 2679:-1 2680:-1 2681:-1 2682:-1 2686:-1 2699:-1 2700:-1 2701:-1 2702:-1 2703:-1 2713:-1 2717:1 2719:-1 2720:-1 2731:-1 2735:-1 2738:-1 2748:-1 2753:-1 2755:-1 2779:-1 2780:-1 2782:-1 2784:-1 2787:-1 2790:-1 2791:-1 2799:-1 2800:-1 2806:-1 2816:-1 2818:-1 2824:-1 2850:-1 2851:-1 2855:-1 2856:-1 2858:-1 2862:-1 2864:-1 2869:-1 2876:-1 2877:-1 2880:-1 2882:-1 2888:-1 2902:-1 2916:-1 2928:-1 
